{"parameters/net.4.bias":{"bins":[-0.041459567844867706,-0.040294185280799866,-0.039128802716732025,-0.037963420152664185,-0.036798037588596344,-0.0356326587498188,-0.03446727618575096,-0.03330189362168312,-0.03213651105761528,-0.03097112849354744,-0.0298057459294796,-0.028640365228056908,-0.027474982663989067,-0.026309600099921227,-0.025144219398498535,-0.023978836834430695,-0.022813454270362854,-0.021648071706295013,-0.020482689142227173,-0.01931730844080448,-0.01815192587673664,-0.0169865433126688,-0.01582116261124611,-0.014655780047178268,-0.013490397483110428,-0.012325014919042587,-0.011159633286297321,-0.009994251653552055,-0.008828869089484215,-0.0076634869910776615,-0.006498104892671108,-0.005332722794264555,-0.004167340695858002,-0.0030019585974514484,-0.0018365764990448952,-0.0006711944006383419,0.0004941876977682114,0.0016595697961747646,0.002824951894581318,0.003990333992987871,0.0051557160913944244,0.006321098189800978,0.007486480288207531,0.008651861920952797,0.009817244485020638,0.010982627049088478,0.012148008681833744,0.01331339031457901,0.01447877287864685,0.01564415544271469,0.016809538006782532,0.017974918708205223,0.019140301272273064,0.020305683836340904,0.021471064537763596,0.022636447101831436,0.023801829665899277,0.024967212229967117,0.026132594794034958,0.02729797549545765,0.02846335805952549,0.02962874062359333,0.03079412132501602,0.03195950388908386,0.0331248864531517],"_type":"histogram","values":[1,0,0,0,0,0,0,0,0,0,0,1,0,0,0,0,0,0,0,0,0,0,0,0,0,0,0,0,0,0,0,0,0,0,1,0,0,0,0,0,0,0,0,1,0,0,0,0,0,0,0,0,0,0,0,0,0,0,0,0,0,0,0,1]},"intrinsic_reward":0,"gradients/graph_2net.2.weight":{"values":[3,3,0,0,0,2,7,9,3,11,10,17,16,23,31,42,49,55,67,110,108,107,137,172,204,227,255,276,348,402,509,702,1433,56021,654,531,480,407,361,319,266,210,194,144,128,92,72,68,62,51,23,21,26,19,7,13,11,4,2,0,1,3,4,4],"bins":[-329.5799560546875,-319.6003112792969,-309.6206970214844,-299.64105224609375,-289.6614074707031,-279.6817932128906,-269.7021484375,-259.7225036621094,-249.74288940429688,-239.76324462890625,-229.7836151123047,-219.80398559570312,-209.8243408203125,-199.84471130371094,-189.86508178710938,-179.88543701171875,-169.9058074951172,-159.92617797851562,-149.946533203125,-139.96690368652344,-129.98727416992188,-120.00763702392578,-110.02799987792969,-100.04837036132812,-90.06873321533203,-80.08909606933594,-70.10946655273438,-60.12982940673828,-50.15019607543945,-40.170562744140625,-30.190927505493164,-20.211292266845703,-10.231658935546875,-0.25202465057373047,9.727609634399414,19.707244873046875,29.686878204345703,39.66651153564453,49.646148681640625,59.62578201293945,69.60541534423828,79.58505249023438,89.56468200683594,99.54431915283203,109.52395629882812,119.50358581542969,129.48321533203125,139.46286010742188,149.44248962402344,159.422119140625,169.40176391601562,179.3813934326172,189.36102294921875,199.34066772460938,209.32029724121094,219.2999267578125,229.27957153320312,239.2592010498047,249.23883056640625,259.2184753417969,269.1980895996094,279.177734375,289.1573791503906,299.1369934082031,309.11663818359375],"_type":"histogram"},"gradients/graph_2net.0.bias":{"_type":"histogram","values":[1,1,1,0,0,0,0,0,0,0,0,0,0,0,0,0,0,0,0,0,0,0,0,0,0,0,0,0,0,0,0,1,1,4,0,6,4,5,4,4,5,9,11,134,6,7,6,4,6,5,5,5,2,3,3,4,2,2,0,3,0,0,1,1],"bins":[-2.5321853160858154,-2.4745078086853027,-2.416830062866211,-2.3591525554656982,-2.3014750480651855,-2.2437973022460938,-2.186119794845581,-2.1284422874450684,-2.0707645416259766,-2.013087034225464,-1.9554094076156616,-1.897731900215149,-1.8400542736053467,-1.7823766469955444,-1.7246991395950317,-1.6670215129852295,-1.6093440055847168,-1.5516663789749146,-1.4939887523651123,-1.4363112449645996,-1.3786336183547974,-1.3209559917449951,-1.2632784843444824,-1.2056008577346802,-1.147923231124878,-1.0902457237243652,-1.032568097114563,-0.9748905301094055,-0.9172129034996033,-0.8595353364944458,-0.8018577694892883,-0.7441801428794861,-0.6865025758743286,-0.6288250088691711,-0.5711473822593689,-0.5134698152542114,-0.45579224824905396,-0.3981146514415741,-0.34043705463409424,-0.28275948762893677,-0.2250818908214569,-0.16740430891513824,-0.10972671955823898,-0.05204913392663002,0.005628451704978943,0.06330603361129761,0.12098362296819687,0.17866121232509613,0.2363387942314148,0.29401639103889465,0.3516939580440521,0.409371554851532,0.46704912185668945,0.5247267484664917,0.5824043154716492,0.6400818824768066,0.6977595090866089,0.7554370760917664,0.8131146430969238,0.8707922101020813,0.9284698367118835,0.986147403717041,1.0438250303268433,1.101502537727356,1.1591801643371582]},"gradients/graph_2net.4.weight":{"values":[1,0,0,0,0,0,0,0,1,0,0,0,0,0,0,0,1,1,0,0,0,1,0,1,1,1,0,0,1,1,0,0,4,2,3,0,4,2,4,2,2,4,4,2,2,4,2,3,1,2,1,1,3,1,1,6,1,4,0,5,4,2,0,170],"bins":[-2573.196044921875,-2532.98974609375,-2492.78369140625,-2452.577392578125,-2412.371337890625,-2372.1650390625,-2331.958984375,-2291.752685546875,-2251.546630859375,-2211.34033203125,-2171.13427734375,-2130.927978515625,-2090.7216796875,-2050.515625,-2010.3094482421875,-1970.103271484375,-1929.89697265625,-1889.6907958984375,-1849.484619140625,-1809.2784423828125,-1769.072265625,-1728.8660888671875,-1688.659912109375,-1648.4537353515625,-1608.24755859375,-1568.0413818359375,-1527.835205078125,-1487.62890625,-1447.4227294921875,-1407.216552734375,-1367.0103759765625,-1326.80419921875,-1286.5980224609375,-1246.391845703125,-1206.1856689453125,-1165.9794921875,-1125.7733154296875,-1085.567138671875,-1045.36083984375,-1005.1547241210938,-964.948486328125,-924.7423095703125,-884.5361328125,-844.3299560546875,-804.123779296875,-763.9176025390625,-723.7113647460938,-683.5051879882812,-643.2990112304688,-603.0928344726562,-562.8866577148438,-522.680419921875,-482.4742431640625,-442.26806640625,-402.0618896484375,-361.8556823730469,-321.6495056152344,-281.4433288574219,-241.23712158203125,-201.03094482421875,-160.8247528076172,-120.61856079101562,-80.4123764038086,-40.2061882019043,0],"_type":"histogram"},"_timestamp":1.7284173993268068e+09,"gradients/net.4.bias":{"bins":[0,0],"_type":"histogram","values":[5]},"gradients/graph_1net.0.bias":{"bins":[0,0],"_type":"histogram","values":[256]},"parameters/graph_1net.2.weight":{"_type":"histogram","values":[5,13,20,100,212,431,548,919,935,1006,1092,1181,1240,1288,1373,1348,1444,1418,1464,1465,1532,1498,1444,1464,1493,1465,1454,1506,1460,1471,1511,1477,1491,1479,1414,1435,1477,1507,1500,1524,1419,1510,1532,1442,1487,1493,1451,1393,1308,1072,891,615,571,485,437,385,299,228,161,115,78,41,15,4],"bins":[-0.08190861344337463,-0.07908492535352707,-0.0762612372636795,-0.07343754917383194,-0.07061386853456497,-0.06779018044471741,-0.06496649235486984,-0.06214280426502228,-0.05931911617517471,-0.05649543181061745,-0.05367174372076988,-0.05084805563092232,-0.04802437126636505,-0.04520068317651749,-0.04237699508666992,-0.039553310722112656,-0.03672962263226509,-0.033905934542417526,-0.03108224831521511,-0.028258562088012695,-0.02543487399816513,-0.022611187770962715,-0.0197875015437603,-0.016963813453912735,-0.01414012722671032,-0.01131644006818533,-0.00849275290966034,-0.005669066682457924,-0.002845379523932934,-2.169259823858738e-05,0.002801994327455759,0.005625681020319462,0.008449368178844452,0.011273055337369442,0.014096742495894432,0.016920428723096848,0.019744116812944412,0.022567803040146828,0.025391489267349243,0.028215177357196808,0.031038863584399223,0.03386254981160164,0.036686237901449203,0.03950992599129677,0.042333610355854034,0.0451572984457016,0.047980986535549164,0.05080467090010643,0.053628358989953995,0.05645204707980156,0.059275731444358826,0.06209941953420639,0.06492310762405396,0.06774679571390152,0.07057048380374908,0.07339416444301605,0.07621785253286362,0.07904154062271118,0.08186522871255875,0.08468891680240631,0.08751260489225388,0.09033628553152084,0.09315997362136841,0.09598366171121597,0.09880734980106354]},"gradients/graph_1net.2.weight":{"values":[65536],"bins":[0,0],"_type":"histogram"},"gradients/graph_1net.2.bias":{"values":[256],"bins":[0,0],"_type":"histogram"},"parameters/graph_1net.2.bias":{"_type":"histogram","values":[2,1,1,3,5,4,7,0,3,1,3,8,3,2,5,2,5,3,5,6,3,9,9,6,5,4,6,11,10,10,7,5,3,5,9,3,3,5,2,4,2,3,7,4,6,1,3,3,1,6,0,5,4,2,2,3,1,2,4,3,1,0,3,2],"bins":[-0.07640662044286728,-0.0737355649471283,-0.07106450200080872,-0.06839344650506973,-0.06572239100933075,-0.06305133551359177,-0.060380276292562485,-0.0577092170715332,-0.05503816157579422,-0.05236710608005524,-0.049696046859025955,-0.047024987637996674,-0.04435393214225769,-0.04168287664651871,-0.039011817425489426,-0.036340758204460144,-0.03366970270872116,-0.03099864535033703,-0.028327587991952896,-0.025656530633568764,-0.02298547327518463,-0.0203144159168005,-0.017643358558416367,-0.014972301200032234,-0.012301243841648102,-0.00963018648326397,-0.006959129124879837,-0.004288071766495705,-0.0016170144081115723,0.0010540429502725601,0.0037251003086566925,0.006396157667040825,0.009067222476005554,0.011738279834389687,0.014409337192773819,0.01708039455115795,0.019751451909542084,0.022422509267926216,0.02509356662631035,0.02776462398469448,0.030435681343078613,0.033106736838817596,0.03577779605984688,0.03844885528087616,0.04111991077661514,0.043790966272354126,0.04646202549338341,0.04913308471441269,0.05180414021015167,0.054475195705890656,0.05714625492691994,0.05981731414794922,0.0624883696436882,0.06515942513942719,0.06783048808574677,0.07050154358148575,0.07317259907722473,0.07584365457296371,0.0785147100687027,0.08118577301502228,0.08385682851076126,0.08652788400650024,0.08919894695281982,0.09187000244855881,0.09454105794429779]},"_runtime":58.086625387,"_wandb":{"runtime":58},"gradients/graph_1net.0.weight":{"bins":[0,0],"_type":"histogram","values":[1792]},"parameters/graph_2net.4.weight":{"_type":"histogram","values":[4,2,3,5,5,2,3,8,5,4,5,5,3,3,4,3,5,2,5,8,5,3,3,2,3,3,3,6,8,4,11,4,3,4,8,7,4,6,3,3,5,2,5,10,3,3,3,4,3,5,7,3,4,4,2,2,5,1,1,0,0,1,5,1],"bins":[-0.05829743295907974,-0.056382786482572556,-0.05446813628077507,-0.05255348980426788,-0.0506388396024704,-0.04872419312596321,-0.046809546649456024,-0.04489489644765854,-0.04298024997115135,-0.04106559976935387,-0.03915095329284668,-0.03723630681633949,-0.03532165661454201,-0.03340701013803482,-0.031492359936237335,-0.02957771345973015,-0.027663065120577812,-0.025748416781425476,-0.02383376844227314,-0.021919121965765953,-0.020004473626613617,-0.01808982528746128,-0.016175176948308945,-0.014260529540479183,-0.012345881201326847,-0.010431232862174511,-0.00851658545434475,-0.006601937115192413,-0.0046872892417013645,-0.0027726413682103157,-0.0008579932618886232,0.0010566547280177474,0.002971302717924118,0.004885950591415167,0.006800598464906216,0.008715246804058552,0.010629894211888313,0.01254454255104065,0.014459190890192986,0.01637383922934532,0.01828848570585251,0.020203134045004845,0.02211778238415718,0.024032430723309517,0.025947079062461853,0.02786172740161419,0.029776373878121376,0.03169102221727371,0.0336056724190712,0.035520318895578384,0.03743496537208557,0.03934961557388306,0.041264262050390244,0.04317891225218773,0.045093558728694916,0.0470082052052021,0.04892285540699959,0.050837501883506775,0.05275215208530426,0.05466679856181145,0.056581445038318634,0.05849609524011612,0.060410741716623306,0.06232539191842079,0.06424003839492798]},"parameters/graph_2net.0.weight":{"bins":[-0.42647725343704224,-0.41376546025276184,-0.40105363726615906,-0.38834184408187866,-0.3756300210952759,-0.3629182279109955,-0.3502064347267151,-0.3374946117401123,-0.3247828185558319,-0.3120710253715515,-0.29935920238494873,-0.28664740920066833,-0.27393561601638794,-0.26122379302978516,-0.24851199984550476,-0.23580019176006317,-0.22308838367462158,-0.21037657558918,-0.1976647675037384,-0.184952974319458,-0.17224116623401642,-0.15952935814857483,-0.14681756496429443,-0.13410575687885284,-0.12139394879341125,-0.10868214070796967,-0.09597034007310867,-0.08325853943824768,-0.07054673135280609,-0.0578349269926548,-0.04512312263250351,-0.03241131827235222,-0.019699543714523315,-0.0069877393543720245,0.005724065005779266,0.018435869365930557,0.031147673726081848,0.04385947808623314,0.05657128244638443,0.06928308308124542,0.08199489116668701,0.0947066992521286,0.1074184998869896,0.12013030052185059,0.13284210860729218,0.14555391669273376,0.15826570987701416,0.17097751796245575,0.18368932604789734,0.19640113413333893,0.20911294221878052,0.2218247354030609,0.2345365434885025,0.2472483515739441,0.2599601447582245,0.27267196774482727,0.28538376092910767,0.29809555411338806,0.31080737709999084,0.32351917028427124,0.336230993270874,0.3489427864551544,0.3616545796394348,0.3743664026260376,0.387078195810318],"_type":"histogram","values":[5,2,3,10,38,33,18,30,26,30,39,30,34,26,25,31,27,46,24,33,33,36,23,35,28,29,26,25,37,32,32,26,33,31,36,32,18,36,24,18,29,32,30,43,28,39,20,27,29,34,32,40,29,30,25,22,26,38,18,35,28,29,23,6]},"gradients/graph_2net.2.bias":{"bins":[-2.3927783966064453,-2.3203253746032715,-2.2478723526000977,-2.175419330596924,-2.10296630859375,-2.0305135250091553,-1.9580605030059814,-1.8856074810028076,-1.8131544589996338,-1.74070143699646,-1.6682484149932861,-1.5957955121994019,-1.523342490196228,-1.4508894681930542,-1.37843656539917,-1.305983543395996,-1.2335305213928223,-1.1610774993896484,-1.0886244773864746,-1.0161715745925903,-0.9437185525894165,-0.8712655305862427,-0.7988125681877136,-0.7263596057891846,-0.6539065837860107,-0.5814535617828369,-0.5090005993843079,-0.4365476071834564,-0.364094614982605,-0.29164162278175354,-0.2191886305809021,-0.14673563838005066,-0.07428288459777832,-0.0018298923969268799,0.07062309980392456,0.143076092004776,0.21552908420562744,0.2879820764064789,0.3604350686073303,0.43288806080818176,0.5053410530090332,0.577794075012207,0.6502470374107361,0.7226999998092651,0.795153021812439,0.8676060438156128,0.9400590062141418,1.012511968612671,1.0849649906158447,1.1574180126190186,1.2298710346221924,1.3023239374160767,1.3747769594192505,1.4472299814224243,1.5196828842163086,1.5921359062194824,1.6645889282226562,1.73704195022583,1.809494972229004,1.8819478750228882,1.954400897026062,2.0268537998199463,2.09930682182312,2.171759843826294,2.2442128658294678],"_type":"histogram","values":[2,0,0,0,0,1,3,1,2,1,2,0,4,1,1,0,1,1,1,4,2,0,0,0,0,2,1,2,3,3,1,1,3,170,3,1,2,1,1,1,1,0,2,2,2,1,1,5,2,2,1,1,3,1,0,1,3,2,0,0,0,1,0,3]},"gradients/net.2.bias":{"_type":"histogram","values":[256],"bins":[0,0]},"gradients/net.0.bias":{"_type":"histogram","values":[256],"bins":[0,0]},"parameters/graph_1net.4.bias":{"bins":[-0.08491772413253784,-0.0842466950416565,-0.08357565850019455,-0.0829046294093132,-0.08223359286785126,-0.08156256377696991,-0.08089152723550797,-0.08022049814462662,-0.07954946160316467,-0.07887843251228333,-0.07820739597082138,-0.07753636687994003,-0.07686533778905869,-0.07619430124759674,-0.0755232721567154,-0.07485223561525345,-0.0741812065243721,-0.07351016998291016,-0.07283914089202881,-0.07216810435056686,-0.07149707525968552,-0.07082603871822357,-0.07015500962734222,-0.06948398053646088,-0.06881294399499893,-0.06814191490411758,-0.06747087836265564,-0.06679984927177429,-0.06612881273031235,-0.065457783639431,-0.06478674709796906,-0.06411571800708771,-0.06344468891620636,-0.06277365237474442,-0.06210261955857277,-0.06143158674240112,-0.06076055392622948,-0.06008952111005783,-0.05941849201917648,-0.05874745920300484,-0.05807642638683319,-0.057405393570661545,-0.0567343607544899,-0.05606332793831825,-0.055392295122146606,-0.05472126230597496,-0.054050229489803314,-0.05337919667363167,-0.05270816385746002,-0.052037134766578674,-0.05136610195040703,-0.05069506913423538,-0.050024036318063736,-0.04935300350189209,-0.048681970685720444,-0.0480109378695488,-0.04733990505337715,-0.046668872237205505,-0.04599783942103386,-0.04532681033015251,-0.044655777513980865,-0.04398474469780922,-0.04331371188163757,-0.04264267906546593,-0.04197164624929428],"_type":"histogram","values":[1,0,0,0,0,0,0,0,0,0,0,0,0,0,0,0,0,0,0,0,0,0,0,0,0,0,0,0,0,0,0,0,0,0,0,0,0,0,0,0,0,0,0,0,0,0,0,0,0,0,0,0,0,0,0,0,0,0,0,0,0,0,0,1]},"contrastive_loss":0,"episode":0,"_step":0,"parameters/net.0.weight":{"_type":"histogram","values":[81216,81534,81538,81419,81448,81888,82083,82088,81508,81919,81907,81424,81930,81350,81240,81632,81328,81330,81613,81517,81606,81095,81698,81453,81525,81573,81716,81737,81587,81819,81379,81298,81308,82213,81453,81222,81939,81202,81083,81988,82103,81223,81377,81665,81693,81336,81220,81718,82052,81598,81252,81749,82170,81698,81606,81457,81704,82036,81830,82119,81688,81755,81710,81347],"bins":[-0.007001050747931004,-0.0067822677083313465,-0.006563485134392977,-0.00634470209479332,-0.00612591952085495,-0.005907136481255293,-0.005688353907316923,-0.005469570867717266,-0.005250788293778896,-0.005032005254179239,-0.004813222214579582,-0.0045944396406412125,-0.004375656601041555,-0.004156874027103186,-0.003938090987503529,-0.003719308180734515,-0.003500525373965502,-0.0032817425671964884,-0.003062959760427475,-0.0028441769536584616,-0.002625394146889448,-0.002406611107289791,-0.0021878283005207777,-0.0019690454937517643,-0.001750262686982751,-0.0015314798802137375,-0.001312697073444724,-0.0010939141502603889,-0.0008751313434913754,-0.000656348536722362,-0.0004375656717456877,-0.00021878283587284386,4.656612873077393e-10,0.00021878330153413117,0.00043756613740697503,0.0006563490023836493,0.0008751318091526628,0.0010939146159216762,0.0013126975391060114,0.0015314803458750248,0.0017502631526440382,0.0019690459594130516,0.002187828766182065,0.0024066115729510784,0.0026253946125507355,0.002844177419319749,0.0030629602260887623,0.0032817430328577757,0.003500525839626789,0.0037193086463958025,0.003938091453164816,0.004156874492764473,0.004375657066702843,0.0045944401063025,0.0048132226802408695,0.005032005719840527,0.005250788293778896,0.005469571333378553,0.0056883543729782104,0.00590713694691658,0.006125919986516237,0.006344702560454607,0.006563485600054264,0.006782268173992634,0.007001051213592291]},"actor_loss":7.37436580657959,"gradients/graph_1net.4.bias":{"_type":"histogram","values":[2],"bins":[0,0]},"parameters/graph_2net.2.weight":{"bins":[-0.09302724152803421,-0.08980152010917664,-0.08657579123973846,-0.08335006982088089,-0.08012434840202332,-0.07689862698316574,-0.07367290556430817,-0.07044717669487,-0.06722145527601242,-0.06399573385715485,-0.06077000871300697,-0.0575442835688591,-0.054318562150001526,-0.05109284073114395,-0.04786711558699608,-0.044641390442848206,-0.04141566902399063,-0.03818994760513306,-0.034964222460985184,-0.03173849731683731,-0.028512775897979736,-0.025287052616477013,-0.02206132933497429,-0.018835606053471565,-0.015609882771968842,-0.012384159490466118,-0.009158436208963394,-0.0059327129274606705,-0.0027069896459579468,0.0005187336355447769,0.0037444569170475006,0.006970180198550224,0.010195910930633545,0.013421634212136269,0.016647357493638992,0.019873080775141716,0.02309880405664444,0.026324527338147163,0.029550250619649887,0.03277597576379776,0.036001697182655334,0.03922741860151291,0.04245314374566078,0.045678868889808655,0.04890459030866623,0.052130311727523804,0.05535603687167168,0.05858176201581955,0.061807483434677124,0.0650332048535347,0.06825892627239227,0.07148465514183044,0.07471037656068802,0.0779360979795456,0.08116182684898376,0.08438754826784134,0.08761326968669891,0.09083899110555649,0.09406471252441406,0.09729044139385223,0.10051616281270981,0.10374188423156738,0.10696761310100555,0.11019333451986313,0.1134190559387207],"_type":"histogram","values":[1,5,2,6,17,25,57,199,490,1059,1534,1568,1603,1689,1558,1640,1580,1585,1537,1559,1675,1648,1676,1725,1615,1696,1677,1597,1767,1724,1731,1715,1694,1659,1699,1738,1672,1700,1707,1784,1713,1668,1671,1661,1716,1596,1363,1073,401,129,106,115,88,81,95,77,80,73,74,41,36,31,25,10]},"parameters/net.2.bias":{"_type":"histogram","values":[7,3,4,4,6,3,3,2,5,3,5,6,8,9,3,2,2,3,4,7,3,2,8,6,5,3,2,5,3,2,6,3,2,8,6,2,6,1,2,2,6,7,3,5,3,3,6,3,2,4,2,3,5,3,5,4,3,3,2,2,5,5,2,4],"bins":[-0.06245022267103195,-0.060498181730508804,-0.05854613706469536,-0.05659409612417221,-0.054642051458358765,-0.05269001051783562,-0.05073796957731247,-0.04878592491149902,-0.046833883970975876,-0.04488184303045273,-0.04292979836463928,-0.040977757424116135,-0.03902571648359299,-0.03707367181777954,-0.03512163087725639,-0.03316958621144295,-0.0312175452709198,-0.029265502467751503,-0.027313459664583206,-0.02536141872406006,-0.023409375920891762,-0.021457333117723465,-0.019505292177200317,-0.01755324937403202,-0.015601206570863724,-0.013649163767695427,-0.011697121895849705,-0.009745080024003983,-0.007793037220835686,-0.005840994883328676,-0.0038889525458216667,-0.0019369102083146572,1.5132129192352295e-05,0.001967174466699362,0.003919216804206371,0.005871259141713381,0.00782330147922039,0.009775344282388687,0.01172738615423441,0.013679428026080132,0.01563147082924843,0.017583513632416725,0.019535556435585022,0.02148759737610817,0.023439640179276466,0.025391682982444763,0.02734372392296791,0.029295766726136208,0.031247809529304504,0.03319985046982765,0.0351518951356411,0.037103936076164246,0.03905598074197769,0.04100802168250084,0.04296006262302399,0.04491210728883743,0.04686414822936058,0.04881618916988373,0.050768233835697174,0.05272027477622032,0.05467231571674347,0.056624360382556915,0.05857640132308006,0.06052844598889351,0.062480486929416656]},"gradients/graph_1net.4.weight":{"bins":[0,0],"_type":"histogram","values":[512]},"parameters/graph_2net.4.bias":{"values":[1],"bins":[-0.03602776303887367,-0.03602776303887367],"_type":"histogram"},"gradients/graph_2net.4.bias":{"_type":"histogram","values":[1],"bins":[-39.19735336303711,-39.19735336303711]},"parameters/graph_2net.0.bias":{"_type":"histogram","values":[5,6,3,8,5,2,7,6,3,3,3,9,5,4,5,4,5,6,6,2,4,2,4,5,2,5,5,2,9,4,5,3,4,4,3,2,5,3,2,7,2,6,0,4,6,7,0,4,6,2,2,7,3,3,5,0,7,5,4,2,0,2,0,2],"bins":[-0.3851805329322815,-0.372494637966156,-0.35980871319770813,-0.34712281823158264,-0.33443692326545715,-0.3217509984970093,-0.3090651035308838,-0.2963792085647583,-0.2836933135986328,-0.27100738883018494,-0.25832149386405945,-0.24563558399677277,-0.23294967412948608,-0.2202637791633606,-0.2075778692960739,-0.19489197432994843,-0.18220606446266174,-0.16952015459537506,-0.15683425962924957,-0.1441483497619629,-0.1314624547958374,-0.11877654492855072,-0.10609063506126404,-0.09340473264455795,-0.08071883022785187,-0.06803292781114578,-0.0553470216691494,-0.042661115527153015,-0.02997521311044693,-0.017289308831095695,-0.004603404551744461,0.008082499727606773,0.020768404006958008,0.03345430642366409,0.04614021256566048,0.05882611870765686,0.07151202112436295,0.08419792354106903,0.09688383340835571,0.1095697358250618,0.12225563824176788,0.13494154810905457,0.14762744307518005,0.16031335294246674,0.17299926280975342,0.1856851577758789,0.1983710676431656,0.21105696260929108,0.22374287247657776,0.23642878234386444,0.24911467730998993,0.2618005871772766,0.2744864821434021,0.28717240691185,0.29985830187797546,0.31254419684410095,0.32523012161254883,0.3379160165786743,0.3506019115447998,0.3632878065109253,0.37597373127937317,0.38865962624549866,0.40134552121162415,0.414031445980072,0.4267173409461975]},"gradients/net.4.weight":{"bins":[0,0],"_type":"histogram","values":[1280]},"gradients/net.0.weight":{"values":[5.222912e+06],"bins":[0,0],"_type":"histogram"},"critic_loss":384.1081237792969,"parameters/net.4.weight":{"bins":[-0.06245752424001694,-0.06051433086395264,-0.058571137487888336,-0.056627947837114334,-0.054684754461050034,-0.05274156108498573,-0.05079836770892143,-0.04885517433285713,-0.04691198468208313,-0.04496879130601883,-0.04302559792995453,-0.04108240455389023,-0.03913921117782593,-0.03719601780176163,-0.035252828150987625,-0.033309634774923325,-0.031366441398859024,-0.029423248022794724,-0.027480056509375572,-0.02553686313331127,-0.02359367161989212,-0.02165047824382782,-0.01970728486776352,-0.017764093354344368,-0.015820899978280067,-0.013877707533538342,-0.011934515088796616,-0.009991321712732315,-0.00804812926799059,-0.006104936823248863,-0.00416174391284585,-0.0022185512352734804,-0.00027535855770111084,0.0016678341198712587,0.0036110267974436283,0.0055542197078466415,0.0074974121525883675,0.009440604597330093,0.011383797973394394,0.01332699041813612,0.015270182862877846,0.017213376238942146,0.019156567752361298,0.021099761128425598,0.0230429545044899,0.02498614601790905,0.02692933939397335,0.028872530907392502,0.030815724283456802,0.0327589176595211,0.0347021110355854,0.036645300686359406,0.038588494062423706,0.04053168743848801,0.04247488081455231,0.04441807419061661,0.04636126756668091,0.04830445721745491,0.05024765059351921,0.05219084396958351,0.05413403734564781,0.05607723072171211,0.058020420372486115,0.059963613748550415,0.061906807124614716],"_type":"histogram","values":[16,23,18,18,24,20,6,24,17,13,16,23,14,21,18,21,9,18,23,22,30,13,20,16,22,15,22,19,23,20,26,18,23,20,23,25,18,28,13,18,17,25,22,24,16,20,19,20,16,23,20,16,26,19,18,21,27,24,22,30,14,28,15,22]},"parameters/graph_2net.2.bias":{"values":[4,2,3,2,7,2,3,2,4,6,3,6,6,2,3,10,5,7,3,2,7,1,5,4,5,2,1,4,10,4,6,6,1,2,8,7,5,5,6,2,4,8,5,2,7,12,2,2,2,5,7,1,2,7,3,3,1,1,1,2,0,1,2,3],"bins":[-0.06833220273256302,-0.06603781878948212,-0.06374343484640121,-0.06144905090332031,-0.05915466696023941,-0.05686028301715851,-0.054565899074077606,-0.052271515130996704,-0.0499771311879158,-0.0476827472448349,-0.045388363301754,-0.043093979358673096,-0.040799595415592194,-0.03850521147251129,-0.03621082752943039,-0.03391644358634949,-0.031622059643268585,-0.029327675700187683,-0.02703329175710678,-0.02473890781402588,-0.022444523870944977,-0.020150139927864075,-0.017855755984783173,-0.01556137204170227,-0.013266988098621368,-0.010972604155540466,-0.008678220212459564,-0.006383836269378662,-0.00408945232629776,-0.001795068383216858,0.0004993155598640442,0.0027936995029449463,0.005088090896606445,0.007382474839687347,0.00967685878276825,0.011971242725849152,0.014265626668930054,0.016560010612010956,0.018854394555091858,0.02114877849817276,0.023443162441253662,0.025737546384334564,0.028031930327415466,0.03032631427049637,0.03262069821357727,0.03491508215665817,0.037209466099739075,0.03950385004281998,0.04179823398590088,0.04409261792898178,0.04638700187206268,0.048681385815143585,0.05097576975822449,0.05327015370130539,0.05556453764438629,0.057858921587467194,0.060153305530548096,0.062447689473629,0.0647420734167099,0.0670364573597908,0.0693308413028717,0.0716252252459526,0.07391960918903351,0.07621399313211441,0.07850837707519531],"_type":"histogram"},"parameters/net.2.weight":{"values":[1000,975,991,948,1069,1020,992,993,1018,1019,1033,1025,993,1070,996,1040,1067,971,967,1049,1035,1002,1011,1007,1042,1036,999,1058,994,1057,1060,1097,1065,1032,980,1085,1028,1071,1010,1007,1033,1040,1033,1006,1011,1012,1034,996,1075,1071,993,1039,997,974,1075,987,977,1054,1013,986,1031,1055,1058,1074],"bins":[-0.06249973922967911,-0.0605466328561306,-0.05859352648258209,-0.056640420109033585,-0.05468731373548508,-0.05273420736193657,-0.05078109726309776,-0.048827990889549255,-0.04687488451600075,-0.04492177814245224,-0.04296867176890373,-0.041015565395355225,-0.03906245902180672,-0.03710935264825821,-0.0351562462747097,-0.033203139901161194,-0.03125002980232239,-0.02929692529141903,-0.02734381891787052,-0.025390710681676865,-0.023437604308128357,-0.02148449793457985,-0.01953139156103134,-0.017578285187482834,-0.015625178813934326,-0.013672071509063244,-0.011718964204192162,-0.009765857830643654,-0.007812751457095146,-0.005859644152224064,-0.003906537778675556,-0.001953430939465761,-3.241002559661865e-07,0.001952782622538507,0.00390588934533298,0.0058589959517121315,0.0078121027909219265,0.009765209630131721,0.01171831600368023,0.013671423308551311,0.01562452968209982,0.0175776369869709,0.01953074336051941,0.021483849734067917,0.023436956107616425,0.025390062481164932,0.02734317071735859,0.029296277090907097,0.031249383464455605,0.03320249170064926,0.03515559807419777,0.03710870444774628,0.039061810821294785,0.04101491719484329,0.0429680235683918,0.04492112994194031,0.046874236315488815,0.04882734268903732,0.05078044906258583,0.05273355916142464,0.054686665534973145,0.05663977190852165,0.05859287828207016,0.06054598465561867,0.062499091029167175],"_type":"histogram"},"parameters/graph_1net.4.weight":{"_type":"histogram","values":[2,5,0,8,6,3,6,8,5,9,2,5,5,6,11,7,10,10,10,7,13,7,9,10,12,6,8,9,6,16,8,8,7,6,11,14,12,7,8,11,7,6,7,9,10,13,5,9,8,6,4,15,11,9,12,10,9,10,10,6,13,5,2,3],"bins":[-0.09601740539073944,-0.09356088191270828,-0.09110435098409653,-0.08864782750606537,-0.08619130402803421,-0.08373478055000305,-0.0812782496213913,-0.07882172614336014,-0.07636520266532898,-0.07390867173671722,-0.07145214825868607,-0.06899562478065491,-0.06653910130262375,-0.064082570374012,-0.061626046895980835,-0.059169523417949677,-0.05671299621462822,-0.05425646901130676,-0.051799945533275604,-0.04934341832995415,-0.04688689485192299,-0.04443036764860153,-0.041973844170570374,-0.03951731696724892,-0.03706078976392746,-0.0346042662858963,-0.032147739082574844,-0.029691215604543686,-0.02723468840122223,-0.02477816306054592,-0.022321637719869614,-0.019865112379193306,-0.017408587038517,-0.01495206169784069,-0.012495536357164383,-0.0100390100851655,-0.007582484744489193,-0.005125959403812885,-0.0026694335974752903,-0.00021290802396833897,0.0022436175495386124,0.00470014289021492,0.007156668696552515,0.00961319450289011,0.012069719843566418,0.014526245184242725,0.016982771456241608,0.019439296796917915,0.021895822137594223,0.02435234747827053,0.02680887281894684,0.029265398159623146,0.031721923500299454,0.03417845070362091,0.03663497418165207,0.039091501384973526,0.04154802858829498,0.04400455206632614,0.0464610792696476,0.04891760274767876,0.051374129951000214,0.05383065342903137,0.05628718063235283,0.05874370411038399,0.061200231313705444]},"parameters/net.0.bias":{"bins":[-0.0068063740618526936,-0.006591285113245249,-0.006376196630299091,-0.006161107681691647,-0.005946018733084202,-0.005730929784476757,-0.005515840835869312,-0.005300752352923155,-0.00508566340431571,-0.004870574455708265,-0.004655485972762108,-0.004440397024154663,-0.004225308075547218,-0.0040102191269397736,-0.0037951304111629725,-0.0035800416953861713,-0.0033649527467787266,-0.003149863798171282,-0.0029347750823944807,-0.0027196863666176796,-0.002504597418010235,-0.00228950846940279,-0.002074419753625989,-0.001859330921433866,-0.001644242089241743,-0.0014291532570496202,-0.0012140644248574972,-0.0009989755926653743,-0.0007838867604732513,-0.0005687979282811284,-0.00035370909608900547,-0.00013862026389688253,7.646903395652771e-05,0.00029155786614865065,0.0005066466983407736,0.0007217355305328965,0.0009368243627250195,0.0011519131949171424,0.0013670020271092653,0.0015820908593013883,0.0017971796914935112,0.002012268640100956,0.002227357355877757,0.002442446071654558,0.002657535020262003,0.0028726239688694477,0.003087712684646249,0.00330280140042305,0.0035178903490304947,0.0037329792976379395,0.003948068246245384,0.004163156729191542,0.0043782456777989864,0.004593334626406431,0.004808423109352589,0.005023512057960033,0.005238601006567478,0.005453689955174923,0.005668778903782368,0.005883867386728525,0.00609895633533597,0.006314045283943415,0.006529133766889572,0.006744222715497017,0.006959311664104462],"_type":"histogram","values":[6,4,2,2,3,2,2,6,2,4,4,10,6,7,4,5,2,4,5,3,8,1,4,5,4,2,7,1,5,7,2,2,4,5,5,6,4,5,3,5,2,1,5,3,4,5,5,6,5,2,7,1,2,3,3,2,5,6,6,2,2,5,4,2]},"parameters/graph_1net.0.weight":{"_type":"histogram","values":[1,1,12,23,27,30,29,35,33,25,26,37,34,27,27,35,32,35,26,25,39,39,42,21,28,30,30,30,22,24,27,31,33,33,28,35,29,27,32,27,30,31,35,27,34,33,32,24,30,30,25,27,20,40,36,29,34,24,36,25,28,20,12,3],"bins":[-0.41107669472694397,-0.39828723669052124,-0.3854978084564209,-0.37270835041999817,-0.3599189221858978,-0.3471294641494751,-0.33434000611305237,-0.321550577878952,-0.3087611198425293,-0.29597169160842896,-0.2831822335720062,-0.2703927755355835,-0.25760334730148315,-0.24481390416622162,-0.2320244461297989,-0.21923500299453735,-0.20644555985927582,-0.19365611672401428,-0.18086667358875275,-0.16807721555233002,-0.15528777241706848,-0.14249832928180695,-0.1297088861465454,-0.11691943556070328,-0.10412999242544174,-0.0913405492901802,-0.07855109870433807,-0.06576165556907654,-0.052972208708524704,-0.04018276184797287,-0.027393316850066185,-0.014603870920836926,-0.001814424991607666,0.010975020937621593,0.023764466866850853,0.03655391186475754,0.04934335872530937,0.062132805585861206,0.07492224872112274,0.08771169930696487,0.10050114244222641,0.11329058557748795,0.12608003616333008,0.1388694792985916,0.15165892243385315,0.16444836556911469,0.17723782360553741,0.19002726674079895,0.20281670987606049,0.21560615301132202,0.22839559614658356,0.2411850541830063,0.2539744973182678,0.26676392555236816,0.2795533835887909,0.2923428416252136,0.30513226985931396,0.3179217278957367,0.33071115612983704,0.34350061416625977,0.3562900722026825,0.36907950043678284,0.38186895847320557,0.3946583867073059,0.40744784474372864]},"parameters/graph_1net.0.bias":{"bins":[-0.38395294547080994,-0.3716418743133545,-0.35933077335357666,-0.3470197021961212,-0.33470863103866577,-0.32239753007888794,-0.3100864589214325,-0.29777538776397705,-0.2854642868041992,-0.2731532156467438,-0.26084214448928833,-0.2485310584306717,-0.23621997237205505,-0.2239089012145996,-0.21159781515598297,-0.19928674399852753,-0.1869756579399109,-0.17466457188129425,-0.1623535007238388,-0.15004241466522217,-0.13773134350776672,-0.12542025744915009,-0.11310917139053345,-0.1007980927824974,-0.08848701417446136,-0.07617593556642532,-0.06386485695838928,-0.051553770899772644,-0.0392426922917366,-0.026931611821055412,-0.014620531350374222,-0.0023094508796930313,0.010001659393310547,0.022312739863991737,0.03462382033467293,0.04693490266799927,0.05924598127603531,0.07155705988407135,0.08386814594268799,0.09617922455072403,0.10849030315876007,0.12080138176679611,0.13311246037483215,0.1454235464334488,0.15773463249206543,0.17004570364952087,0.1823567897081375,0.19466786086559296,0.2069789469242096,0.21929003298282623,0.23160110414028168,0.24391219019889832,0.25622326135635376,0.2685343623161316,0.28084543347358704,0.2931565046310425,0.3054676055908203,0.31777867674827576,0.3300897479057312,0.34240081906318665,0.3547119200229645,0.3670229911804199,0.37933406233787537,0.3916451632976532,0.40395623445510864],"_type":"histogram","values":[5,6,5,6,1,3,0,6,4,3,2,5,1,2,4,5,6,6,3,5,3,4,6,3,3,1,5,3,4,4,7,6,5,5,4,7,4,2,7,3,4,3,2,7,3,2,3,2,3,4,3,2,2,5,7,5,4,3,2,8,4,4,5,5]},"gradients/net.2.weight":{"bins":[0,0],"_type":"histogram","values":[65536]},"gradients/graph_2net.0.weight":{"values":[1,1,1,0,0,0,0,0,0,0,0,0,0,1,1,1,0,0,0,0,0,0,0,0,0,0,0,2,1,0,0,1,1,4,0,11,8,8,11,15,20,34,58,1325,89,48,38,23,22,12,11,11,6,6,4,6,2,3,1,3,0,0,1,1],"bins":[-545.7616577148438,-533.3303833007812,-520.899169921875,-508.4679260253906,-496.03668212890625,-483.6054382324219,-471.1741943359375,-458.7429504394531,-446.31170654296875,-433.8804626464844,-421.44921875,-409.0179748535156,-396.58673095703125,-384.1554870605469,-371.7242431640625,-359.2929992675781,-346.86175537109375,-334.43048095703125,-321.9992370605469,-309.5679931640625,-297.1367492675781,-284.70550537109375,-272.2742614746094,-259.843017578125,-247.41177368164062,-234.98052978515625,-222.54928588867188,-210.1180419921875,-197.68679809570312,-185.25555419921875,-172.82431030273438,-160.39306640625,-147.9618377685547,-135.5305938720703,-123.09934997558594,-110.66810607910156,-98.23686218261719,-85.80561065673828,-73.3743667602539,-60.94312286376953,-48.511878967285156,-36.08063507080078,-23.649389266967773,-11.218144416809082,1.2131004333496094,13.6443452835083,26.075590133666992,38.5068359375,50.938079833984375,63.36932373046875,75.80056762695312,88.2318115234375,100.66305541992188,113.09430694580078,125.52555084228516,137.956787109375,150.38803100585938,162.8192901611328,175.2505340576172,187.68177795410156,200.11302185058594,212.5442657470703,224.9755096435547,237.40675354003906,249.83799743652344],"_type":"histogram"}}