{"gradients/graph_1net.0.bias":{"bins":[-0.000165444755111821,-0.00016138484352268279,-0.00015732491738162935,-0.00015326500579249114,-0.0001492050796514377,-0.0001451451680622995,-0.00014108525647316128,-0.00013702533033210784,-0.00013296541874296963,-0.0001289054926019162,-0.00012484558101277798,-0.00012078566214768216,-0.00011672574328258634,-0.00011266582441749051,-0.0001086059128283523,-0.00010454599396325648,-0.00010048607509816065,-9.642615623306483e-05,-9.2366237367969e-05,-8.83063257788308e-05,-8.424640691373497e-05,-8.018648804863915e-05,-7.612656918354332e-05,-7.20666503184475e-05,-6.800673145335168e-05,-6.394681986421347e-05,-5.988690099911764e-05,-5.582698213402182e-05,-5.1767063268925995e-05,-4.770714804180898e-05,-4.3647229176713154e-05,-3.958731394959614e-05,-3.552739508450031e-05,-3.146747621940449e-05,-2.7407560992287472e-05,-2.3347642127191648e-05,-1.9287725081085227e-05,-1.5227808034978807e-05,-1.1167890079377685e-05,-7.107972578523913e-06,-3.048055077670142e-06,1.0118624231836293e-06,5.071779924037401e-06,9.131697879638523e-06,1.3191614925744943e-05,1.7251531971851364e-05,2.1311450836947188e-05,2.5371367883053608e-05,2.943128492916003e-05,3.349120379425585e-05,3.755111902137287e-05,4.1611037886468694e-05,4.567095311358571e-05,4.9730871978681535e-05,5.379079084377736e-05,5.7850706070894375e-05,6.1910628573969e-05,6.597054016310722e-05,7.003045902820304e-05,7.409037789329886e-05,7.815029675839469e-05,8.221021562349051e-05,8.627012721262872e-05,9.033004607772455e-05,9.438996494282037e-05],"_type":"histogram","values":[1,1,0,0,1,0,0,1,0,1,1,2,0,1,1,1,4,3,0,3,4,4,3,4,4,2,6,1,4,5,5,7,7,6,2,5,2,4,1,2,136,1,2,2,4,2,1,2,0,1,1,2,0,1,0,0,0,1,0,0,0,0,0,1]},"parameters/graph_2net.0.weight":{"_type":"histogram","values":[1,3,6,20,25,28,25,35,41,27,32,18,32,41,34,29,30,24,21,27,38,30,27,30,33,46,27,39,29,30,23,34,31,27,26,39,29,29,31,27,36,25,30,34,35,25,28,32,33,22,30,29,27,35,30,27,37,40,29,24,20,26,13,1],"bins":[-0.421474426984787,-0.40873634815216064,-0.3959982991218567,-0.38326022028923035,-0.3705221712589264,-0.35778409242630005,-0.3450460433959961,-0.33230796456336975,-0.3195698857307434,-0.30683183670043945,-0.2940937578678131,-0.28135570883750916,-0.2686176300048828,-0.25587958097457886,-0.24314150214195251,-0.23040343821048737,-0.21766537427902222,-0.20492731034755707,-0.19218924641609192,-0.17945118248462677,-0.16671311855316162,-0.15397503972053528,-0.14123697578907013,-0.12849891185760498,-0.11576084792613983,-0.10302278399467468,-0.09028472006320953,-0.07754664868116379,-0.06480858474969864,-0.05207052081823349,-0.03933245316147804,-0.026594387367367744,-0.013856321573257446,-0.0011182557791471481,0.01161981001496315,0.024357875809073448,0.037095941603183746,0.049834005534648895,0.06257207691669464,0.07531014084815979,0.08804820477962494,0.10078626871109009,0.11352433264255524,0.12626239657402039,0.13900047540664673,0.15173853933811188,0.16447660326957703,0.17721466720104218,0.18995273113250732,0.20269079506397247,0.21542885899543762,0.22816692292690277,0.24090498685836792,0.25364306569099426,0.2663811147212982,0.27911919355392456,0.2918572425842285,0.30459532141685486,0.3173334002494812,0.33007144927978516,0.3428095281124115,0.35554757714271545,0.3682856559753418,0.38102370500564575,0.3937617838382721]},"intrinsic_reward":0,"gradients/graph_1net.2.weight":{"bins":[-0.00032282440224662423,-0.0003137075691483915,-0.00030459073605015874,-0.000295473902951926,-0.00028635706985369325,-0.00027724026585929096,-0.0002681234327610582,-0.00025900659966282547,-0.0002498897665645927,-0.00024077293346635997,-0.00023165610036812723,-0.0002225392818218097,-0.00021342244872357696,-0.00020430561562534422,-0.0001951887970790267,-0.00018607196398079395,-0.0001769551308825612,-0.00016783829778432846,-0.00015872146468609571,-0.0001496046461397782,-0.00014048781304154545,-0.0001313709799433127,-0.0001222541613969952,-0.00011313732829876244,-0.0001040204952005297,-9.490366210229695e-05,-8.578683628002182e-05,-7.667001045774668e-05,-6.755317735951394e-05,-5.843634789926e-05,-4.931951843900606e-05,-4.020268897875212e-05,-3.108585951849818e-05,-2.1969030058244243e-05,-1.2852200597990304e-05,-3.735371137736365e-06,5.381458322517574e-06,1.4498287782771513e-05,2.3615117243025452e-05,3.273194670327939e-05,4.184877616353333e-05,5.096560562378727e-05,6.008243508404121e-05,6.919926090631634e-05,7.831609400454909e-05,8.743292710278183e-05,9.654975292505696e-05,0.0001056665787473321,0.00011478341184556484,0.0001239002449437976,0.00013301707804203033,0.00014213389658834785,0.0001512507296865806,0.00016036756278481334,0.00016948438133113086,0.0001786012144293636,0.00018771804752759635,0.0001968348806258291,0.00020595171372406185,0.00021506853227037936,0.0002241853653686121,0.00023330219846684486,0.00024241901701316237,0.0002515358501113951,0.00026065268320962787],"_type":"histogram","values":[1,1,0,1,1,2,0,1,7,2,2,4,3,2,4,7,2,2,2,6,3,2,2,4,7,9,16,13,24,23,37,29,46,87,101,63838,175,210,132,123,112,109,89,70,62,37,37,20,17,8,5,8,4,3,6,2,4,6,0,2,2,0,0,2]},"parameters/graph_2net.0.bias":{"bins":[-0.3838193714618683,-0.3718697726726532,-0.3599201440811157,-0.34797054529190063,-0.33602094650268555,-0.32407131791114807,-0.312121719121933,-0.3001720905303955,-0.2882224917411804,-0.27627289295196533,-0.26432326436042786,-0.25237366557121277,-0.2404240518808365,-0.2284744381904602,-0.21652483940124512,-0.20457522571086884,-0.19262561202049255,-0.18067599833011627,-0.16872638463974,-0.1567767858505249,-0.14482717216014862,-0.13287755846977234,-0.12092795222997665,-0.10897834599018097,-0.09702873229980469,-0.0850791186094284,-0.07312951236963272,-0.06117990240454674,-0.049230292439460754,-0.03728068247437477,-0.025331072509288788,-0.013381462544202805,-0.0014318525791168213,0.010517757385969162,0.022467367351055145,0.03441697731614113,0.04636658728122711,0.058316197246313095,0.07026580721139908,0.08221541345119476,0.09416502714157104,0.10611464083194733,0.11806424707174301,0.1300138533115387,0.14196346700191498,0.15391308069229126,0.16586267948150635,0.17781229317188263,0.1897619068622589,0.2017115205526352,0.21366113424301147,0.22561073303222656,0.23756034672260284,0.24950996041297913,0.2614595592021942,0.2734091877937317,0.2853587865829468,0.29730838537216187,0.30925801396369934,0.32120761275291443,0.3331572413444519,0.345106840133667,0.3570564389228821,0.36900606751441956,0.38095566630363464],"_type":"histogram","values":[2,5,5,6,2,6,2,4,6,6,4,5,1,5,5,5,3,4,2,2,3,4,4,6,5,3,1,1,1,3,5,5,4,3,7,2,9,5,1,3,2,6,5,6,3,4,1,6,1,8,4,2,4,3,4,5,5,6,4,5,3,7,3,4]},"parameters/net.2.weight":{"values":[1013,1007,1104,1055,1035,1003,1039,1028,1023,1019,1023,1051,1028,1049,1032,1022,993,1094,1060,1007,1022,1052,1035,1073,1023,1021,1033,1039,1041,1019,999,1011,977,1019,1045,1043,1049,996,1030,998,1005,1034,984,1057,1031,997,1032,1004,1043,963,1027,1005,1020,1006,949,1048,1072,961,987,1064,991,1015,1023,1008],"bins":[-0.062498241662979126,-0.06054515391588211,-0.058592066168785095,-0.05663897469639778,-0.054685886949300766,-0.05273279920220375,-0.05077970772981644,-0.04882661998271942,-0.046873532235622406,-0.04492044448852539,-0.042967356741428375,-0.04101426526904106,-0.039061177521944046,-0.03710808977484703,-0.03515499830245972,-0.0332019105553627,-0.031248822808265686,-0.02929573506116867,-0.027342645451426506,-0.02538955584168434,-0.023436468094587326,-0.02148338034749031,-0.019530290737748146,-0.01757720112800598,-0.015624113380908966,-0.013671024702489376,-0.011717936024069786,-0.009764847345650196,-0.007811758667230606,-0.005858669988811016,-0.003905581310391426,-0.001952492631971836,5.960464477539062e-07,0.001953684724867344,0.003906773403286934,0.005859862081706524,0.007812950760126114,0.009766039438545704,0.011719128116965294,0.013672216795384884,0.015625305473804474,0.01757839322090149,0.019531482830643654,0.02148457244038582,0.023437660187482834,0.02539074793457985,0.027343837544322014,0.02929692715406418,0.031250014901161194,0.03320310264825821,0.035156190395355225,0.03710928186774254,0.039062369614839554,0.04101545736193657,0.04296854883432388,0.0449216365814209,0.046874724328517914,0.04882781207561493,0.050780899822711945,0.05273399129509926,0.054687079042196274,0.05664016678929329,0.0585932582616806,0.06054634600877762,0.062499433755874634],"_type":"histogram"},"gradients/net.2.bias":{"values":[256],"bins":[0,0],"_type":"histogram"},"critic_loss":0.0003658978675957769,"total_reward":-129.0483503639698,"gradients/graph_1net.0.weight":{"_type":"histogram","values":[2,1,2,0,1,1,2,2,3,2,6,4,10,11,13,16,9,28,36,39,39,64,72,85,988,42,39,36,24,21,19,20,17,13,16,7,4,10,8,6,8,7,10,5,6,4,6,6,3,1,1,3,3,2,0,2,1,0,1,0,1,1,2,1],"bins":[-5.911223342991434e-05,-5.6680524721741676e-05,-5.4248812375590205e-05,-5.181710366741754e-05,-4.938539132126607e-05,-4.6953682613093406e-05,-4.4521970266941935e-05,-4.209026155876927e-05,-3.965855285059661e-05,-3.7226840504445136e-05,-3.479513179627247e-05,-3.2363419450121e-05,-2.9931710741948336e-05,-2.750000021478627e-05,-2.50682896876242e-05,-2.2636579160462134e-05,-2.0204868633300066e-05,-1.7773158106138e-05,-1.534144757897593e-05,-1.2909737961308565e-05,-1.0478027434146497e-05,-8.04631690698443e-06,-5.614606834569713e-06,-3.182896534781321e-06,-7.511862349929288e-07,1.6805240647954633e-06,4.1122343645838555e-06,6.543944436998572e-06,8.97565496416064e-06,1.1407365491322707e-05,1.3839075108990073e-05,1.627078563615214e-05,1.8702499801293015e-05,2.1134210328455083e-05,2.356592085561715e-05,2.5997631382779218e-05,2.8429341909941286e-05,3.086105061811395e-05,3.329276296426542e-05,3.5724471672438085e-05,3.8156184018589556e-05,4.058789272676222e-05,4.3019601434934884e-05,4.5451313781086355e-05,4.788302248925902e-05,5.031473483541049e-05,5.2746443543583155e-05,5.5178155889734626e-05,5.760986459790729e-05,6.0041573306079954e-05,6.247328565223143e-05,6.49049979983829e-05,6.733670306857675e-05,6.976841541472822e-05,7.22001277608797e-05,7.463184010703117e-05,7.706354517722502e-05,7.94952575233765e-05,8.192696986952797e-05,8.435867493972182e-05,8.67903872858733e-05,8.922209963202477e-05,9.165381197817624e-05,9.408551704837009e-05,9.651722939452156e-05]},"parameters/graph_2net.4.weight":{"_type":"histogram","values":[1,0,2,3,2,5,3,2,2,3,1,5,2,3,5,3,6,3,4,3,3,4,4,4,1,3,3,10,4,1,9,7,9,10,9,10,2,0,5,5,2,4,6,6,1,3,2,5,6,4,6,3,4,1,2,9,5,5,5,2,3,4,5,2],"bins":[-0.062195517122745514,-0.0603117011487484,-0.05842788517475128,-0.056544069200754166,-0.05466025322675705,-0.052776437252759933,-0.05089261755347252,-0.0490088015794754,-0.04712498560547829,-0.04524116963148117,-0.043357353657484055,-0.04147353768348694,-0.03958972170948982,-0.037705905735492706,-0.03582208976149559,-0.033938273787498474,-0.03205445408821106,-0.030170639976859093,-0.028286824002861977,-0.02640300616621971,-0.024519190192222595,-0.02263537421822548,-0.020751558244228363,-0.018867742270231247,-0.01698392629623413,-0.01510010939091444,-0.01321629248559475,-0.011332476511597633,-0.009448660537600517,-0.007564843632280827,-0.0056810276582837105,-0.003797211218625307,-0.0019133947789669037,-2.9578455723822117e-05,0.0018542378675192595,0.003738054074347019,0.005621870514005423,0.007505686953663826,0.009389502927660942,0.011273319832980633,0.013157135806977749,0.015040951780974865,0.016924768686294556,0.018808584660291672,0.020692400634288788,0.022576216608285904,0.02446003444492817,0.026343850418925285,0.0282276663929224,0.030111482366919518,0.03199530020356178,0.0338791161775589,0.035762932151556015,0.03764674812555313,0.03953056409955025,0.04141438007354736,0.04329819604754448,0.045182012021541595,0.04706582799553871,0.048949647694826126,0.05083346366882324,0.05271727964282036,0.054601095616817474,0.05648491159081459,0.05836872756481171]},"_wandb":{"runtime":419},"parameters/graph_2net.2.weight":{"_type":"histogram","values":[2,2,3,7,9,8,11,18,36,51,118,183,548,806,1763,1855,1932,1920,1881,2003,1873,1860,1998,1983,2018,1971,1896,1968,1941,1959,1910,1979,1983,2001,1891,1923,1995,1936,1905,2023,2028,1949,1958,1917,1782,1602,1146,523,143,84,54,42,28,20,20,20,11,14,12,3,9,1,0,1],"bins":[-0.11486806720495224,-0.11112348735332489,-0.10737891495227814,-0.10363433510065079,-0.09988975524902344,-0.09614518284797668,-0.09240060299634933,-0.08865603059530258,-0.08491145074367523,-0.08116687089204788,-0.07742229849100113,-0.07367771863937378,-0.06993314623832703,-0.06618856638669968,-0.06244398653507233,-0.058699410408735275,-0.054954834282398224,-0.05121025815606117,-0.04746568202972412,-0.04372110217809677,-0.03997652605175972,-0.03623194992542267,-0.03248737007379532,-0.028742793947458267,-0.024998217821121216,-0.021253641694784164,-0.017509063705801964,-0.013764486648142338,-0.010019909590482712,-0.006275332532823086,-0.0025307554751634598,0.0012138215824961662,0.004958398640155792,0.008702975697815418,0.012447552755475044,0.016192130744457245,0.019936706870794296,0.023681282997131348,0.02742586098611355,0.03117043897509575,0.0349150151014328,0.03865959122776985,0.0424041673541069,0.04614874720573425,0.049893323332071304,0.053637899458408356,0.057382479310035706,0.06112705543637276,0.06487163156270981,0.06861621141433716,0.07236078381538391,0.07610536366701126,0.07984994351863861,0.08359451591968536,0.08733909577131271,0.09108366817235947,0.09482824802398682,0.09857282787561417,0.10231740027666092,0.10606198012828827,0.10980655252933502,0.11355113238096237,0.11729571223258972,0.12104028463363647,0.12478486448526382]},"gradients/net.4.bias":{"_type":"histogram","values":[5],"bins":[0,0]},"contrastive_loss":0,"episode_length":99,"gradients/net.0.bias":{"_type":"histogram","values":[256],"bins":[0,0]},"parameters/graph_2net.4.bias":{"values":[1],"bins":[0.024578139185905457,0.024578139185905457],"_type":"histogram"},"parameters/graph_1net.4.weight":{"_type":"histogram","values":[1,0,0,0,0,0,0,0,0,0,0,0,1,0,2,2,4,9,8,7,19,12,19,15,20,17,18,26,29,18,22,25,24,20,19,14,20,19,18,22,19,18,13,16,7,0,2,1,2,2,0,0,0,0,0,0,0,0,0,0,0,0,1,1],"bins":[-0.152023047208786,-0.14727139472961426,-0.1425197422504425,-0.13776808977127075,-0.133016437292099,-0.12826478481292725,-0.12351313978433609,-0.11876148730516434,-0.11400983482599258,-0.10925818234682083,-0.10450652986764908,-0.09975487738847733,-0.09500323235988617,-0.09025157988071442,-0.08549992740154266,-0.08074827492237091,-0.07599662244319916,-0.0712449699640274,-0.06649331748485565,-0.0617416687309742,-0.056990016251802444,-0.05223836377263069,-0.04748671501874924,-0.042735062539577484,-0.03798341006040573,-0.03323175758123398,-0.028480106964707375,-0.02372845634818077,-0.018976803869009018,-0.01422515232115984,-0.009473500773310661,-0.004721849225461483,2.981722354888916e-05,0.0047814687713980675,0.009533120319247246,0.014284771867096424,0.019036423414945602,0.023788075894117355,0.02853972651064396,0.03329137712717056,0.038043029606342316,0.04279468208551407,0.04754633456468582,0.052297983318567276,0.05704963579773903,0.06180128827691078,0.06655293703079224,0.07130458950996399,0.07605624198913574,0.0808078944683075,0.08555954694747925,0.090311199426651,0.09506285190582275,0.09981449693441391,0.10456614941358566,0.10931780189275742,0.11406945437192917,0.11882110685110092,0.12357275933027267,0.12832440435886383,0.13307605683803558,0.13782770931720734,0.1425793617963791,0.14733101427555084,0.1520826667547226]},"parameters/graph_1net.4.bias":{"values":[1,0,0,0,0,0,0,0,0,0,0,0,0,0,0,0,0,0,0,0,0,0,0,0,0,0,0,0,0,0,0,0,0,0,0,0,0,0,0,0,0,0,0,0,0,0,0,0,0,0,0,0,0,0,0,0,0,0,0,0,0,0,0,1],"bins":[-0.08882777392864227,-0.0882871076464653,-0.08774644136428833,-0.08720578253269196,-0.08666511625051498,-0.08612444996833801,-0.08558378368616104,-0.08504311740398407,-0.0845024511218071,-0.08396179229021072,-0.08342112600803375,-0.08288045972585678,-0.08233979344367981,-0.08179912716150284,-0.08125846832990646,-0.08071780204772949,-0.08017713576555252,-0.07963646948337555,-0.07909580320119858,-0.0785551369190216,-0.07801447808742523,-0.07747381180524826,-0.07693314552307129,-0.07639247924089432,-0.07585181295871735,-0.07531114667654037,-0.074770487844944,-0.07422982156276703,-0.07368915528059006,-0.07314848899841309,-0.07260782271623611,-0.07206716388463974,-0.07152649760246277,-0.0709858313202858,-0.07044516503810883,-0.06990449875593185,-0.06936383247375488,-0.06882317364215851,-0.06828250735998154,-0.06774184107780457,-0.0672011747956276,-0.06666050851345062,-0.06611984968185425,-0.06557918339967728,-0.0650385171175003,-0.06449785083532333,-0.06395718455314636,-0.06341651827096939,-0.06287585943937302,-0.062335193157196045,-0.061794526875019073,-0.0612538605928421,-0.06071319803595543,-0.06017253175377846,-0.059631865471601486,-0.05909120291471481,-0.05855053663253784,-0.05800987035036087,-0.0574692077934742,-0.056928541511297226,-0.05638787895441055,-0.05584721267223358,-0.05530654639005661,-0.05476588383316994,-0.054225217550992966],"_type":"histogram"},"gradients/graph_2net.2.bias":{"values":[1,1,0,1,1,2,1,0,0,1,0,0,0,0,1,0,0,0,0,0,1,0,1,2,2,198,2,1,2,0,0,0,3,1,0,1,1,4,2,2,0,2,1,0,0,0,1,2,0,4,1,0,0,1,2,0,1,2,1,1,1,0,2,2],"bins":[-0.0015228029806166887,-0.0014641180168837309,-0.0014054331695660949,-0.001346748205833137,-0.0012880632421001792,-0.0012293783947825432,-0.0011706934310495853,-0.0011120084673166275,-0.0010533236199989915,-0.0009946386562660336,-0.0009359537507407367,-0.0008772688452154398,-0.000818583881482482,-0.000759898975957185,-0.0007012140704318881,-0.0006425291066989303,-0.0005838442011736333,-0.0005251592956483364,-0.00046647436101920903,-0.00040778942639008164,-0.0003491045208647847,-0.00029041958623565733,-0.00023173465160652995,-0.0001730497315293178,-0.00011436481145210564,-5.567988773691468e-05,3.0050359782762825e-06,6.168996333144605e-05,0.0001203748834086582,0.00017905980348587036,0.00023774473811499774,0.00029642964364029467,0.00035511457826942205,0.00041379951289854944,0.00047248441842384636,0.0005311693530529737,0.0005898542585782707,0.0006485392223112285,0.0007072241278365254,0.0007659090333618224,0.0008245939388871193,0.0008832789026200771,0.0009419638081453741,0.001000648713670671,0.0010593336774036288,0.0011180186411365867,0.0011767034884542227,0.0012353884521871805,0.0012940734159201384,0.0013527582632377744,0.0014114432269707322,0.0014701280742883682,0.001528813038021326,0.001587498001754284,0.00164618284907192,0.0017048678128048778,0.0017635527765378356,0.0018222376238554716,0.0018809225875884295,0.0019396075513213873,0.001998292515054345,0.002056977478787303,0.002115662209689617,0.002174347173422575,0.002233032137155533],"_type":"histogram"},"parameters/graph_1net.2.bias":{"_type":"histogram","values":[1,1,1,1,0,1,4,7,7,13,13,11,12,15,13,8,8,11,14,4,13,14,15,13,10,7,7,8,7,7,2,2,1,0,2,0,2,0,0,0,0,0,0,0,0,0,0,0,0,0,0,0,0,0,0,0,0,0,0,0,0,0,0,1],"bins":[-0.11353643983602524,-0.10799819976091385,-0.10245995968580246,-0.09692171961069107,-0.09138348698616028,-0.08584524691104889,-0.0803070068359375,-0.07476876676082611,-0.06923052668571472,-0.06369228661060333,-0.05815404653549194,-0.05261581018567085,-0.047077570110559464,-0.041539330035448074,-0.036001093685626984,-0.030462853610515594,-0.024924613535404205,-0.019386373460292816,-0.013848135247826576,-0.008309896104037762,-0.002771656960248947,0.0027665821835398674,0.008304821327328682,0.013843060471117496,0.01938129961490631,0.0249195396900177,0.03045777790248394,0.03599601611495018,0.04153425619006157,0.04707249626517296,0.05261073261499405,0.05814897269010544,0.06368722021579742,0.06922546029090881,0.0747637003660202,0.08030194044113159,0.08584018051624298,0.09137841314077377,0.09691665321588516,0.10245489329099655,0.10799313336610794,0.11353137344121933,0.11906961351633072,0.12460785359144211,0.1301460862159729,0.1356843262910843,0.14122256636619568,0.14676080644130707,0.15229904651641846,0.15783728659152985,0.16337552666664124,0.16891376674175262,0.174452006816864,0.1799902468919754,0.1855284869670868,0.19106672704219818,0.19660496711730957,0.20214319229125977,0.20768143236637115,0.21321967244148254,0.21875791251659393,0.22429615259170532,0.2298343926668167,0.2353726327419281,0.2409108728170395]},"gradients/graph_1net.4.bias":{"bins":[-0.004789283499121666,-0.004736723378300667,-0.004684163257479668,-0.004631603602319956,-0.004579043481498957,-0.0045264833606779575,-0.004473923239856958,-0.0044213635846972466,-0.004368803463876247,-0.004316243343055248,-0.004263683222234249,-0.00421112310141325,-0.004158563446253538,-0.004106003325432539,-0.00405344320461154,-0.004000883083790541,-0.003948323428630829,-0.003895763074979186,-0.0038432031869888306,-0.0037906430661678314,-0.003738083178177476,-0.003685523057356477,-0.0036329631693661213,-0.003580403048545122,-0.003527842927724123,-0.0034752830397337675,-0.0034227229189127684,-0.003370163030922413,-0.0033176029101014137,-0.0032650430221110582,-0.003212482901290059,-0.0031599230132997036,-0.0031073628924787045,-0.003054803004488349,-0.00300224288366735,-0.0029496829956769943,-0.002897122874855995,-0.0028445629868656397,-0.0027920028660446405,-0.002739442978054285,-0.002686882857233286,-0.0026343227364122868,-0.0025817628484219313,-0.002529202727600932,-0.0024766428396105766,-0.0024240827187895775,-0.002371522830799222,-0.002318962709978223,-0.0022664028219878674,-0.002213842701166868,-0.002161282580345869,-0.0021087226923555136,-0.0020561625715345144,-0.002003602683544159,-0.0019510425627231598,-0.0018984825583174825,-0.0018459225539118052,-0.0017933625495061278,-0.0017408025451004505,-0.0016882425406947732,-0.0016356825362890959,-0.0015831224154680967,-0.0015305624110624194,-0.001478002406656742,-0.0014254424022510648],"_type":"histogram","values":[1,0,0,0,0,0,0,0,0,0,0,0,0,0,0,0,0,0,0,0,0,0,0,0,0,0,0,0,0,0,0,0,0,0,0,0,0,0,0,0,0,0,0,0,0,0,0,0,0,0,0,0,0,0,0,0,0,0,0,0,0,0,0,1]},"gradients/graph_2net.0.weight":{"bins":[-0.0005583520978689194,-0.0005378648056648672,-0.0005173775716684759,-0.0004968902794644237,-0.00047640304546803236,-0.00045591575326398015,-0.0004354284901637584,-0.00041494122706353664,-0.0003944539639633149,-0.00037396670086309314,-0.0003534794377628714,-0.00033299217466264963,-0.0003125048824585974,-0.00029201761935837567,-0.0002715303562581539,-0.00025104309315793216,-0.0002305558300577104,-0.00021006856695748866,-0.0001895813038572669,-0.00016909402620512992,-0.00014860676310490817,-0.00012811950000468642,-0.00010763222962850705,-8.714495925232768e-05,-6.665769615210593e-05,-4.617042941390537e-05,-2.5683162675704807e-05,-5.195895937504247e-06,1.5291370800696313e-05,3.5778637538896874e-05,5.6265904277097434e-05,7.67531746532768e-05,9.724037954583764e-05,0.0001177276426460594,0.00013821490574628115,0.00015870218339841813,0.00017918944649863988,0.00019967670959886163,0.00022016398725099862,0.00024065125035122037,0.0002611385134514421,0.0002816257765516639,0.00030211303965188563,0.0003226003027521074,0.0003430875949561596,0.00036357485805638134,0.0003840621211566031,0.00040454938425682485,0.0004250366473570466,0.00044552391045726836,0.0004660111735574901,0.00048649843665771186,0.0005069856997579336,0.0005274729919619858,0.0005479602259583771,0.0005684475181624293,0.0005889347521588206,0.0006094220443628728,0.000629909336566925,0.0006503965705633163,0.0006708838627673686,0.0006913710967637599,0.0007118583889678121,0.0007323456229642034,0.0007528329151682556],"_type":"histogram","values":[1,0,2,1,4,0,5,5,1,4,0,1,4,4,7,4,9,5,8,13,11,25,31,29,46,61,75,1033,86,60,51,36,30,30,26,15,13,9,4,5,11,6,9,4,3,1,0,0,1,0,0,0,0,0,1,0,0,0,1,0,0,0,0,1]},"gradients/net.0.weight":{"values":[5.222912e+06],"bins":[0,0],"_type":"histogram"},"gradients/graph_1net.4.weight":{"values":[1,0,0,0,0,0,0,0,0,0,0,0,0,0,0,0,0,0,0,0,0,0,0,0,0,0,0,0,0,0,0,0,0,1,0,0,0,0,0,0,0,0,0,0,1,0,0,0,0,0,0,0,0,0,1,1,0,0,3,0,2,4,6,492],"bins":[-0.02250237762928009,-0.022150777280330658,-0.021799178794026375,-0.021447578445076942,-0.02109597995877266,-0.020744379609823227,-0.020392779260873795,-0.02004118077456951,-0.01968958042562008,-0.019337980076670647,-0.018986381590366364,-0.01863478124141693,-0.0182831808924675,-0.017931582406163216,-0.017579982057213783,-0.0172283835709095,-0.016876783221960068,-0.016525182873010635,-0.016173584386706352,-0.01582198403775692,-0.015470384620130062,-0.015118785202503204,-0.014767184853553772,-0.014415585435926914,-0.014063986018300056,-0.013712386600673199,-0.013360787183046341,-0.013009186834096909,-0.01265758741647005,-0.012305987998843193,-0.01195438764989376,-0.011602788232266903,-0.011251188814640045,-0.010899589397013187,-0.01054798997938633,-0.010196389630436897,-0.00984479021281004,-0.009493190795183182,-0.00914159044623375,-0.008789991028606892,-0.008438391610980034,-0.008086792193353176,-0.007735192310065031,-0.007383592426776886,-0.007031993009150028,-0.0066803935915231705,-0.006328793708235025,-0.00597719382494688,-0.005625594407320023,-0.005273994989693165,-0.00492239510640502,-0.004570795223116875,-0.004219195805490017,-0.0038675961550325155,-0.003515996504575014,-0.0031643968541175127,-0.0028127972036600113,-0.00246119755320251,-0.0021095979027450085,-0.001757998252287507,-0.0014063986018300056,-0.0010547989513725042,-0.0007031993009150028,-0.0003515996504575014,0],"_type":"histogram"},"parameters/net.0.weight":{"_type":"histogram","values":[81348,81589,82163,82069,81328,81610,81215,81404,82085,81807,81343,81748,82016,82052,81610,81328,81288,81553,81548,81947,81299,82007,81870,81615,81391,82164,81325,81400,81440,81701,81718,81142,81111,81176,81529,81624,81790,82041,81607,81823,81420,81679,81895,81402,81624,81731,81558,81313,81367,81840,81309,81401,81412,81354,82160,81765,81056,81735,81574,81922,82021,81073,81602,81875],"bins":[-0.007001054007560015,-0.006782270967960358,-0.006563488394021988,-0.006344705354422331,-0.006125922314822674,-0.005907139740884304,-0.005688356701284647,-0.005469574127346277,-0.00525079108774662,-0.005032008048146963,-0.004813225474208593,-0.004594442434608936,-0.0043756598606705666,-0.0041568768210709095,-0.0039380937814712524,-0.003719310974702239,-0.0035005281679332256,-0.0032817453611642122,-0.003062962554395199,-0.0028441795147955418,-0.0026253967080265284,-0.002406613901257515,-0.002187830861657858,-0.0019690480548888445,-0.001750265248119831,-0.0015314824413508177,-0.0013126995181664824,-0.0010939165949821472,-0.0008751337882131338,-0.0006563509232364595,-0.0004375680582597852,-0.00021878519328311086,-2.7939677238464355e-09,0.00021878007100895047,0.0004375629359856248,0.0006563458009622991,0.0008751286659389734,0.0010939114727079868,0.001312694395892322,0.0015314773190766573,0.0017502601258456707,0.001969042932614684,0.0021878257393836975,0.0024066087789833546,0.002625391585752368,0.0028441743925213814,0.0030629574321210384,0.003281740238890052,0.0035005230456590652,0.0037193058524280787,0.003938088659197092,0.004156871698796749,0.004375654272735119,0.004594437312334776,0.004813220351934433,0.005032002925872803,0.00525078596547246,0.005469569005072117,0.005688351579010487,0.005907134618610144,0.006125917658209801,0.0063447002321481705,0.0065634832717478275,0.006782265845686197,0.007001048885285854]},"parameters/graph_1net.2.weight":{"bins":[-0.1744416356086731,-0.1681816279888153,-0.16192162036895752,-0.15566162765026093,-0.14940162003040314,-0.14314161241054535,-0.13688160479068756,-0.13062159717082977,-0.12436159700155258,-0.1181015893816948,-0.1118415892124176,-0.10558158159255981,-0.09932157397270203,-0.09306157380342484,-0.08680156618356705,-0.08054156601428986,-0.07428155839443207,-0.06802155077457428,-0.06176155060529709,-0.0555015429854393,-0.04924153909087181,-0.04298153519630432,-0.03672152757644653,-0.030461523681879044,-0.024201519787311554,-0.017941515892744064,-0.011681510135531425,-0.005421505309641361,0.000838499516248703,0.007098504342138767,0.013358509168028831,0.01961851492524147,0.025878503918647766,0.032138507813215256,0.038398511707782745,0.04465851932764053,0.05091852322220802,0.05717852711677551,0.0634385347366333,0.06969853490591049,0.07595854252576828,0.08221855014562607,0.08847855031490326,0.09473855793476105,0.10099856555461884,0.10725856572389603,0.11351857334375381,0.119778573513031,0.1260385811328888,0.13229858875274658,0.13855859637260437,0.14481858909130096,0.15107859671115875,0.15733860433101654,0.16359861195087433,0.16985861957073212,0.1761186122894287,0.1823786199092865,0.1886386275291443,0.19489863514900208,0.20115864276885986,0.20741865038871765,0.21367864310741425,0.21993865072727203,0.22619865834712982],"_type":"histogram","values":[2,0,0,0,1,1,3,5,5,6,12,16,46,106,186,388,880,1932,2801,3060,3126,3139,3208,3225,3282,3326,3313,3321,3257,3222,3220,3252,3232,3178,3075,2820,2299,1240,559,281,135,66,56,48,32,22,31,20,15,15,9,6,10,9,3,5,3,8,2,4,4,4,1,3]},"gradients/graph_2net.2.weight":{"bins":[-0.0011363568482920527,-0.0010925645474344492,-0.0010487722465768456,-0.001004980062134564,-0.0009611877612769604,-0.0009173954604193568,-0.0008736031595617533,-0.0008298109169118106,-0.0007860186160542071,-0.0007422263151966035,-0.0006984340725466609,-0.0006546417716890574,-0.0006108494708314538,-0.0005670572281815112,-0.0005232649273239076,-0.0004794726555701345,-0.00043568038381636143,-0.00039188811206258833,-0.00034809584030881524,-0.0003043035394512117,-0.0002605112676974386,-0.0002167189959436655,-0.00017292670963797718,-0.00012913442333228886,-8.534215157851577e-05,-4.154987254878506e-05,2.2424064809456468e-06,4.6034685510676354e-05,8.982696454040706e-05,0.00013361923629418015,0.00017741152259986848,0.0002212038089055568,0.0002649960806593299,0.000308788352413103,0.0003525806241668761,0.00039637292502447963,0.0004401651967782527,0.0004839574685320258,0.0005277497693896294,0.000571542012039572,0.0006153343128971756,0.0006591266137547791,0.0007029188564047217,0.0007467111572623253,0.0007905034581199288,0.0008342957007698715,0.000878088001627475,0.0009218802442774177,0.0009656725451350212,0.0010094648459926248,0.0010532571468502283,0.00109704933129251,0.0011408416321501136,0.0011846339330077171,0.0012284262338653207,0.0012722185347229242,0.001316010719165206,0.0013598030200228095,0.001403595320880413,0.0014473876217380166,0.0014911799225956202,0.0015349722234532237,0.0015787644078955054,0.001622556708753109,0.0016663490096107125],"_type":"histogram","values":[2,1,1,2,2,3,6,2,5,12,16,20,26,35,45,42,56,68,86,80,89,120,121,151,252,59233,884,546,507,436,410,329,303,249,212,147,146,143,125,112,80,74,49,57,54,29,33,30,19,23,14,9,5,8,6,2,3,2,3,2,1,2,3,3]},"_runtime":419.380878464,"parameters/net.2.bias":{"_type":"histogram","values":[3,0,4,3,0,5,2,4,7,5,4,4,5,5,2,1,4,4,3,8,5,4,2,3,8,3,5,4,4,7,5,4,4,8,3,5,3,5,4,7,6,1,5,1,2,5,4,5,6,6,4,3,1,2,5,2,6,4,5,6,3,2,3,3],"bins":[-0.06248372048139572,-0.06054256111383438,-0.05860139802098274,-0.0566602386534214,-0.05471907556056976,-0.05277791619300842,-0.050836753100156784,-0.048895593732595444,-0.046954430639743805,-0.045013271272182465,-0.043072108179330826,-0.041130948811769485,-0.03918978571891785,-0.037248626351356506,-0.03530746325850487,-0.03336630389094353,-0.03142514079809189,-0.029483981430530548,-0.02754282020032406,-0.02560165897011757,-0.02366049773991108,-0.02171933650970459,-0.0197781752794981,-0.01783701404929161,-0.01589585468173027,-0.013954692520201206,-0.012013531289994717,-0.010072370059788227,-0.008131209760904312,-0.006190048065036535,-0.004248887300491333,-0.0023077260702848434,-0.0003665648400783539,0.0015745962737128139,0.0035157573875039816,0.0054569183848798275,0.007398079615086317,0.00933924037963152,0.011280401609838009,0.013221562840044498,0.015162724070250988,0.017103884369134903,0.019045045599341393,0.020986206829547882,0.02292736805975437,0.02486852928996086,0.02680969052016735,0.02875085175037384,0.03069201298058033,0.03263317421078682,0.03457433357834816,0.0365154966711998,0.03845665603876114,0.04039781913161278,0.04233897849917412,0.04428014159202576,0.0462213009595871,0.048162464052438736,0.050103623420000076,0.052044786512851715,0.053985945880413055,0.055927108973264694,0.057868268340826035,0.05980943143367767,0.061750590801239014]},"gradients/graph_2net.0.bias":{"values":[1,0,0,0,0,1,0,0,0,0,1,0,0,0,0,0,1,0,0,1,1,1,0,1,0,1,2,1,2,3,2,6,2,4,4,4,2,2,139,4,2,3,7,6,3,5,6,2,3,4,2,3,4,3,0,0,3,1,4,4,0,4,0,1],"bins":[-0.0014156056568026543,-0.0013784673064947128,-0.0013413290726020932,-0.0013041907222941518,-0.0012670523719862103,-0.0012299141380935907,-0.0011927757877856493,-0.0011556374374777079,-0.0011184990871697664,-0.0010813608532771468,-0.0010442225029692054,-0.001007084152661264,-0.0009699459187686443,-0.0009328075684607029,-0.0008956692763604224,-0.0008585309260524809,-0.0008213926339522004,-0.0007842543418519199,-0.0007471159915439785,-0.0007099776994436979,-0.0006728393491357565,-0.000635701057035476,-0.0005985627649351954,-0.000561424414627254,-0.0005242861225269735,-0.0004871478013228625,-0.0004500094801187515,-0.000412871188018471,-0.00037573286681436,-0.00033859454561024904,-0.0003014562535099685,-0.00026431793230585754,-0.00022717955289408565,-0.00019004123168997467,-0.00015290292503777891,-0.00011576461110962555,-7.862629718147218e-05,-4.1487983253318816e-05,-4.3496693251654506e-06,3.2788644602987915e-05,6.992695853114128e-05,0.00010706527245929465,0.000144203586387448,0.00018134189303964376,0.00021848021424375474,0.0002556185354478657,0.00029275682754814625,0.00032989514875225723,0.0003670334699563682,0.0004041717911604792,0.00044131011236459017,0.0004784484044648707,0.0005155866965651512,0.0005527250468730927,0.0005898633389733732,0.0006270016892813146,0.0006641399813815951,0.0007012782734818757,0.0007384166237898171,0.0007755549158900976,0.0008126932661980391,0.0008498315582983196,0.0008869698503986001,0.0009241082007065415,0.0009612464928068221],"_type":"histogram"},"_timestamp":1.7284181673252153e+09,"parameters/graph_1net.0.weight":{"_type":"histogram","values":[6,4,15,16,19,20,41,26,29,30,34,32,30,36,30,26,40,32,19,29,28,31,18,35,20,35,31,33,43,38,25,26,33,38,42,26,33,24,28,36,35,26,21,23,32,33,21,29,29,41,29,28,29,29,25,24,32,33,28,27,35,23,16,7],"bins":[-0.4167613983154297,-0.4041798412799835,-0.39159831404685974,-0.3790167570114136,-0.3664352297782898,-0.35385367274284363,-0.34127211570739746,-0.3286905884742737,-0.3161090314388275,-0.30352750420570374,-0.29094594717025757,-0.2783643901348114,-0.2657828629016876,-0.25320130586624146,-0.24061976373195648,-0.2280382215976715,-0.21545667946338654,-0.20287513732910156,-0.1902935951948166,-0.17771203815937042,-0.16513049602508545,-0.15254895389080048,-0.1399674117565155,-0.12738586962223053,-0.11480432003736496,-0.10222277790307999,-0.08964122831821442,-0.07705968618392944,-0.06447814404964447,-0.0518965944647789,-0.03931505233049393,-0.026733506470918655,-0.014151960611343384,-0.0015704156830906868,0.01101112924516201,0.023592673242092133,0.036174219101667404,0.048755764961242676,0.06133730709552765,0.07391885668039322,0.08650039881467819,0.09908194094896317,0.11166349053382874,0.12424503266811371,0.13682657480239868,0.14940811693668365,0.16198967397212982,0.1745712161064148,0.18715275824069977,0.19973430037498474,0.21231584250926971,0.22489739954471588,0.23747894167900085,0.25006046891212463,0.2626420259475708,0.27522358298301697,0.28780511021614075,0.3003866672515869,0.3129681944847107,0.32554975152015686,0.338131308555603,0.3507128357887268,0.363294392824173,0.37587592005729675,0.3884574770927429]},"gradients/graph_2net.4.bias":{"values":[1],"bins":[0.03825691342353821,0.03825691342353821],"_type":"histogram"},"gradients/graph_1net.2.bias":{"_type":"histogram","values":[1,0,0,0,0,0,0,0,0,0,0,0,0,0,0,0,0,0,0,0,0,0,0,1,0,0,0,1,0,0,0,0,1,0,0,241,0,0,0,0,0,0,0,2,1,1,0,2,1,0,2,1,0,0,0,0,0,0,0,0,0,0,0,1],"bins":[-0.0004811833205167204,-0.0004675943055190146,-0.0004540052905213088,-0.00044041627552360296,-0.00042682726052589715,-0.00041323824552819133,-0.0003996492305304855,-0.0003860602155327797,-0.0003724711714312434,-0.0003588821564335376,-0.0003452931414358318,-0.00033170412643812597,-0.00031811511144042015,-0.00030452609644271433,-0.0002909370814450085,-0.0002773480664473027,-0.0002637590514495969,-0.00025017003645189106,-0.00023658102145418525,-0.00022299200645647943,-0.0002094029914587736,-0.00019581396190915257,-0.00018222494691144675,-0.00016863593191374093,-0.00015504691691603512,-0.0001414579019183293,-0.00012786888692062348,-0.00011427986464696005,-0.00010069084964925423,-8.710183465154842e-05,-7.351281237788498e-05,-5.992379738017917e-05,-4.633478238247335e-05,-3.274576738476753e-05,-1.9156748749082908e-05,-5.567731932387687e-06,8.021284884307534e-06,2.1610301701002754e-05,3.5199318517697975e-05,4.87883371533826e-05,6.237735215108842e-05,7.596636714879423e-05,8.955538214650005e-05,0.00010314440442016348,0.0001167334194178693,0.00013032244169153273,0.00014391145668923855,0.00015750047168694437,0.00017108948668465018,0.000184678501682356,0.00019826751668006182,0.00021185653167776763,0.00022544554667547345,0.0002390345762250945,0.0002526235766708851,0.0002662125916685909,0.0002798016066662967,0.000293390650767833,0.0003069796657655388,0.00032056868076324463,0.00033415769576095045,0.00034774671075865626,0.0003613357257563621,0.0003749247407540679,0.0003885137557517737]},"parameters/net.0.bias":{"_type":"histogram","values":[3,2,1,4,6,4,5,2,4,5,4,2,4,4,3,3,6,8,8,5,3,4,5,6,2,0,4,5,2,2,2,3,5,8,4,3,7,7,6,2,0,3,2,4,5,6,4,3,4,5,4,3,4,4,3,7,1,5,3,4,4,4,5,6],"bins":[-0.006984543986618519,-0.006766051519662142,-0.006547559518367052,-0.006329067051410675,-0.006110575050115585,-0.005892082583159208,-0.005673590116202831,-0.0054550981149077415,-0.0052366056479513645,-0.0050181131809949875,-0.004799621179699898,-0.004581128712743521,-0.004362636245787144,-0.004144144244492054,-0.003925651777535677,-0.0037071595434099436,-0.00348866730928421,-0.003270175075158477,-0.0030516828410327435,-0.0028331903740763664,-0.002614698139950633,-0.0023962059058248997,-0.0021777134388685226,-0.0019592212047427893,-0.001740728970617056,-0.0015222367364913225,-0.0013037443859502673,-0.0010852520354092121,-0.0008667598012834787,-0.0006482675089500844,-0.00042977521661669016,-0.00021128292428329587,7.209833711385727e-06,0.00022570212604478002,0.0004441944183781743,0.0006626867107115686,0.0008811790030449629,0.0010996712371706963,0.0013181635877117515,0.0015366559382528067,0.00175514817237854,0.0019736404065042734,0.002192132640630007,0.002410625107586384,0.002629117341712117,0.0028476095758378506,0.0030661020427942276,0.003284594276919961,0.0035030865110456944,0.0037215787451714277,0.003940070979297161,0.004158563446253538,0.004377055913209915,0.004595547914505005,0.004814040381461382,0.005032532382756472,0.005251024849712849,0.005469517316669226,0.005688009317964315,0.0059065017849206924,0.006124993786215782,0.006343486253172159,0.006561978720128536,0.006780470721423626,0.006998963188380003]},"gradients/net.4.weight":{"bins":[0,0],"_type":"histogram","values":[1280]},"gradients/net.2.weight":{"values":[65536],"bins":[0,0],"_type":"histogram"},"episode":6,"parameters/net.4.weight":{"_type":"histogram","values":[24,16,22,13,19,19,26,15,17,20,16,18,8,23,20,21,27,16,22,27,23,21,18,22,20,21,14,28,30,13,15,17,20,19,16,23,15,20,12,21,34,24,17,17,10,24,14,21,18,20,22,23,24,22,21,16,15,27,17,25,30,17,19,26],"bins":[-0.06249868869781494,-0.060547634959220886,-0.05859658122062683,-0.056645527482032776,-0.05469447374343872,-0.052743420004844666,-0.05079236626625061,-0.048841312527656555,-0.0468902587890625,-0.044939201325178146,-0.04298814758658409,-0.041037093847990036,-0.03908604010939598,-0.037134986370801926,-0.03518393263220787,-0.033232878893613815,-0.03128182515501976,-0.029330771416425705,-0.02737971767783165,-0.025428663939237595,-0.02347761020064354,-0.021526554599404335,-0.01957550086081028,-0.017624447122216225,-0.01567339338362217,-0.013722339645028114,-0.01177128590643406,-0.00982023123651743,-0.007869177497923374,-0.005918123759329319,-0.0039670695550739765,-0.0020160155836492777,-6.496161222457886e-05,0.00188609235920012,0.003837146330624819,0.005788200534880161,0.0077392542734742165,0.009690308012068272,0.011641362681984901,0.013592416420578957,0.015543470159173012,0.017494523897767067,0.019445577636361122,0.021396631374955177,0.02334768697619438,0.025298740714788437,0.027249794453382492,0.029200848191976547,0.031151901930570602,0.03310295566916466,0.03505400940775871,0.03700506314635277,0.03895611688494682,0.04090717062354088,0.042858224362134933,0.04480927810072899,0.04676033556461334,0.0487113893032074,0.05066244304180145,0.05261349678039551,0.05456455051898956,0.05651560425758362,0.05846665799617767,0.06041771173477173,0.062368765473365784]},"parameters/graph_2net.2.bias":{"bins":[-0.07869040966033936,-0.07616408914327621,-0.07363776862621307,-0.07111144810914993,-0.06858512759208679,-0.06605879962444305,-0.06353247910737991,-0.06100615859031677,-0.05847983807325363,-0.05595351755619049,-0.05342719703912735,-0.05090087279677391,-0.04837455227971077,-0.04584823176264763,-0.04332190752029419,-0.04079558700323105,-0.03826926648616791,-0.03574294596910477,-0.033216625452041626,-0.030690301209688187,-0.028163980692625046,-0.025637660175561905,-0.023111337795853615,-0.020585015416145325,-0.018058694899082184,-0.015532373450696468,-0.013006052002310753,-0.010479730553925037,-0.007953409105539322,-0.005427087657153606,-0.002900766208767891,-0.00037444476038217545,0.002151884138584137,0.0046782055869698524,0.007204527035355568,0.009730848483741283,0.012257169932126999,0.014783491380512714,0.01730981282889843,0.01983613520860672,0.02236245572566986,0.024888776242733,0.027415098622441292,0.029941421002149582,0.03246774151921272,0.034994062036275864,0.0375203862786293,0.040046706795692444,0.042573027312755585,0.045099347829818726,0.047625668346881866,0.050151992589235306,0.05267831310629845,0.05520463362336159,0.05773095786571503,0.06025727838277817,0.06278359889984131,0.06530991941690445,0.06783623993396759,0.07036256045103073,0.07288888096809387,0.07541520893573761,0.07794152945280075,0.08046784996986389,0.08299417048692703],"_type":"histogram","values":[1,0,2,0,2,3,2,6,6,5,6,3,2,4,7,5,5,2,5,8,10,9,10,1,7,6,5,8,3,5,5,6,9,11,5,6,3,4,3,3,3,5,3,6,3,4,2,5,4,9,0,6,4,0,6,1,1,0,0,0,0,0,0,1]},"_step":7,"actor_loss":-0.197545126080513,"parameters/net.4.bias":{"bins":[-0.04593364894390106,-0.04462277516722679,-0.04331190139055252,-0.04200102761387825,-0.04069015383720398,-0.03937928006052971,-0.03806841000914574,-0.036757536232471466,-0.035446662455797195,-0.034135788679122925,-0.032824914902448654,-0.031514041125774384,-0.030203167349100113,-0.028892293572425842,-0.02758142165839672,-0.02627054788172245,-0.02495967410504818,-0.02364880032837391,-0.02233792655169964,-0.021027054637670517,-0.019716180860996246,-0.018405307084321976,-0.017094433307647705,-0.015783559530973434,-0.014472686685621738,-0.013161812908947468,-0.011850940063595772,-0.010540066286921501,-0.00922919251024723,-0.007918319664895535,-0.006607445888221264,-0.0052965725772082806,-0.003985699266195297,-0.002674825955182314,-0.001363952411338687,-5.3078983910381794e-05,0.0012577944435179234,0.0025686677545309067,0.0038795412983745337,0.005190414842218161,0.006501288153231144,0.007812161464244127,0.00912303477525711,0.010433908551931381,0.011744782328605652,0.013055655173957348,0.014366528950631618,0.015677401795983315,0.016988275572657585,0.018299149349331856,0.019610023126006126,0.020920895040035248,0.02223176881670952,0.02354264259338379,0.02485351637005806,0.02616439014673233,0.0274752639234066,0.028786135837435722,0.030097009614109993,0.031407881528139114,0.032718755304813385,0.034029629081487656,0.035340502858161926,0.0366513766348362,0.03796225041151047],"_type":"histogram","values":[1,0,0,0,0,0,0,0,0,0,0,0,0,0,0,0,0,0,0,0,0,1,1,0,0,0,0,0,0,0,0,0,0,0,0,0,0,0,0,0,0,0,0,0,0,1,0,0,0,0,0,0,0,0,0,0,0,0,0,0,0,0,0,1]},"gradients/graph_2net.4.weight":{"values":[197,1,5,0,1,2,0,1,2,3,4,2,5,4,0,1,3,4,3,3,0,1,1,0,0,1,0,1,1,1,2,0,1,0,1,0,0,0,0,1,1,0,0,1,0,0,0,0,0,0,0,0,0,0,0,1,0,0,0,0,0,0,0,1],"bins":[0,0.00037417677231132984,0.0007483535446226597,0.0011225303169339895,0.0014967070892453194,0.0018708838615566492,0.002245060633867979,0.002619237406179309,0.0029934141784906387,0.0033675909508019686,0.0037417677231132984,0.004115944728255272,0.004490121267735958,0.004864297807216644,0.005238474812358618,0.005612651817500591,0.0059868283569812775,0.006361004896461964,0.006735181901603937,0.007109358906745911,0.007483535446226597,0.007857711985707283,0.008231889456510544,0.00860606599599123,0.008980242535471916,0.009354419074952602,0.009728595614433289,0.01010277308523655,0.010476949624717236,0.010851126164197922,0.011225303635001183,0.011599480174481869,0.011973656713962555,0.012347833253443241,0.012722009792923927,0.013096187263727188,0.013470363803207874,0.01384454034268856,0.014218717813491821,0.014592894352972507,0.014967070892453194,0.01534124743193388,0.015715423971414566,0.016089601442217827,0.016463778913021088,0.0168379545211792,0.01721213199198246,0.01758630760014057,0.017960485070943832,0.018334662541747093,0.018708838149905205,0.019083015620708466,0.019457191228866577,0.019831368699669838,0.0202055461704731,0.02057972177863121,0.02095389924943447,0.021328076720237732,0.021702252328395844,0.022076429799199104,0.022450607270002365,0.022824782878160477,0.023198960348963737,0.02357313595712185,0.02394731342792511],"_type":"histogram"},"parameters/graph_1net.0.bias":{"bins":[-0.37651878595352173,-0.3646266460418701,-0.3527345061302185,-0.3408423662185669,-0.3289502263069153,-0.31705808639526367,-0.30516594648361206,-0.29327380657196045,-0.28138166666030884,-0.2694895565509796,-0.257597416639328,-0.2457052618265152,-0.23381313681602478,-0.22192099690437317,-0.21002885699272156,-0.19813671708106995,-0.18624457716941833,-0.17435243725776672,-0.1624602973461151,-0.1505681574344635,-0.1386760175228119,-0.12678389251232147,-0.11489175260066986,-0.10299961268901825,-0.09110747277736664,-0.07921533286571503,-0.06732319295406342,-0.0554310604929924,-0.04353892058134079,-0.03164678066968918,-0.019754644483327866,-0.007862506434321404,0.004029601812362671,0.015921739861369133,0.027813877910375595,0.03970601409673691,0.05159815400838852,0.06349029392004013,0.07538242638111115,0.08727456629276276,0.09916670620441437,0.11105884611606598,0.12295098602771759,0.1348431259393692,0.14673525094985962,0.15862739086151123,0.17051953077316284,0.18241167068481445,0.19430381059646606,0.20619595050811768,0.2180880904197693,0.2299802303314209,0.2418723702430725,0.2537645101547241,0.26565665006637573,0.27754878997802734,0.28944092988967896,0.3013330399990082,0.3132251799106598,0.3251173198223114,0.337009459733963,0.3489015996456146,0.36079373955726624,0.37268587946891785,0.38457801938056946],"_type":"histogram","values":[3,4,3,1,2,2,6,3,9,6,3,5,6,3,8,5,3,3,3,2,2,3,5,4,5,3,8,4,7,4,4,1,3,6,3,7,7,3,2,4,2,4,3,5,4,2,8,2,6,4,3,4,2,6,5,5,2,4,5,5,5,4,0,1]}}