{"gradients/graph_2net.0.weight":{"values":[2,0,0,1,0,0,1,1,0,2,2,4,6,4,12,5,5,10,14,21,21,32,43,50,63,1190,59,75,39,31,16,19,16,12,5,4,5,6,1,1,3,0,2,0,0,3,3,1,0,0,1,0,0,0,0,0,0,0,0,0,0,0,0,1],"bins":[-291.135986328125,-279.7558898925781,-268.37579345703125,-256.9956970214844,-245.6156005859375,-234.23550415039062,-222.85540771484375,-211.47531127929688,-200.09521484375,-188.71511840820312,-177.33502197265625,-165.95492553710938,-154.5748291015625,-143.19473266601562,-131.81463623046875,-120.43453979492188,-109.054443359375,-97.67434692382812,-86.29425048828125,-74.91415405273438,-63.5340576171875,-52.153961181640625,-40.77386474609375,-29.393768310546875,-18.013671875,-6.633575439453125,4.74652099609375,16.126617431640625,27.5067138671875,38.886810302734375,50.26690673828125,61.647003173828125,73.02706909179688,84.40716552734375,95.78726196289062,107.1673583984375,118.54745483398438,129.92755126953125,141.30764770507812,152.687744140625,164.06784057617188,175.44793701171875,186.82803344726562,198.2081298828125,209.58822631835938,220.96832275390625,232.34841918945312,243.728515625,255.10861206054688,266.48870849609375,277.8688049316406,289.2489013671875,300.6289978027344,312.00909423828125,323.3891906738281,334.769287109375,346.1493835449219,357.52947998046875,368.9095764160156,380.2896728515625,391.6697692871094,403.04986572265625,414.4299621582031,425.81005859375,437.1901550292969],"_type":"histogram"},"gradients/graph_1net.2.weight":{"_type":"histogram","values":[65536],"bins":[0,0]},"_wandb":{"runtime":55},"contrastive_loss":0,"_timestamp":1.7284175662855554e+09,"parameters/graph_2net.4.bias":{"_type":"histogram","values":[1],"bins":[-0.04460020735859871,-0.04460020735859871]},"parameters/net.4.bias":{"bins":[-0.009309783577919006,-0.0081973010674119,-0.007084817625582218,-0.005972335115075111,-0.004859852138906717,-0.003747369162738323,-0.0026348864194005728,-0.0015224035596475005,-0.00040992069989442825,0.000702562159858644,0.0018150450196117163,0.0029275277629494667,0.004040010739117861,0.005152493715286255,0.006264976225793362,0.007377459201961756,0.00848994217813015,0.009602424688637257,0.010714908130466938,0.011827390640974045,0.012939874082803726,0.014052356593310833,0.01516483910381794,0.01627732254564762,0.017389804124832153,0.018502287566661835,0.019614771008491516,0.020727254450321198,0.02183973602950573,0.02295221947133541,0.024064702913165092,0.025177184492349625,0.026289667934179306,0.027402151376008987,0.02851463295519352,0.0296271163970232,0.030739599838852882,0.031852081418037415,0.032964564859867096,0.03407704830169678,0.03518953174352646,0.03630201518535614,0.03741449490189552,0.038526978343725204,0.039639461785554886,0.04075194522738457,0.04186442866921425,0.04297691211104393,0.04408939182758331,0.045201875269412994,0.046314358711242676,0.04742684215307236,0.04853932559490204,0.04965180903673172,0.0507642924785614,0.051876772195100784,0.052989255636930466,0.05410173907876015,0.05521422252058983,0.05632670596241951,0.05743918940424919,0.058551669120788574,0.059664152562618256,0.06077663600444794,0.06188911944627762],"_type":"histogram","values":[1,1,0,0,0,0,0,0,0,0,0,0,0,0,0,0,0,0,0,0,0,0,0,0,0,0,0,0,0,0,0,0,0,0,0,0,0,0,0,0,0,0,0,0,0,0,1,0,0,0,0,0,0,0,0,0,0,0,0,0,0,0,0,2]},"parameters/graph_1net.2.bias":{"_type":"histogram","values":[1,3,0,2,6,4,7,4,1,7,9,2,9,1,3,7,1,7,3,9,4,6,4,6,7,5,5,6,6,5,3,5,5,7,4,3,4,4,6,5,3,4,5,12,2,6,4,3,3,8,3,5,1,0,4,3,2,0,1,0,0,0,0,1],"bins":[-0.07376445084810257,-0.07138291001319885,-0.06900137662887573,-0.06661983579397202,-0.0642383024096489,-0.06185676157474518,-0.05947522446513176,-0.05709368735551834,-0.05471215024590492,-0.052330613136291504,-0.049949076026678085,-0.04756753891706467,-0.04518599808216095,-0.04280446097254753,-0.04042292386293411,-0.038041386753320694,-0.035659849643707275,-0.03327831253409386,-0.030896775424480438,-0.02851523645222187,-0.026133699342608452,-0.023752162232995033,-0.021370623260736465,-0.018989086151123047,-0.01660754904150963,-0.01422601193189621,-0.011844473890960217,-0.009462935850024223,-0.007081398740410805,-0.004699861165136099,-0.002318323589861393,6.321398541331291e-05,0.002444744110107422,0.004826281685382128,0.007207819260656834,0.009589357301592827,0.011970894411206245,0.014352431520819664,0.016733970493078232,0.01911550760269165,0.02149704471230507,0.023878581821918488,0.026260118931531906,0.028641657903790474,0.031023195013403893,0.03340473398566246,0.03578627109527588,0.0381678082048893,0.040549345314502716,0.042930882424116135,0.04531241953372955,0.04769395664334297,0.05007549375295639,0.05245703458786011,0.054838571697473526,0.057220108807086945,0.05960164591670036,0.06198318302631378,0.0643647238612175,0.06674625724554062,0.06912779808044434,0.07150933146476746,0.07389087229967117,0.0762724056839943,0.07865394651889801]},"actor_loss":7.130308628082275,"parameters/graph_2net.0.weight":{"_type":"histogram","values":[1,4,20,21,34,32,26,29,28,27,27,32,45,27,25,34,30,21,35,20,32,26,24,41,36,28,28,24,28,41,33,34,31,44,37,26,21,29,40,34,26,29,24,35,28,38,31,18,25,24,30,32,40,28,29,30,29,28,28,31,26,19,8,1],"bins":[-0.40064701437950134,-0.3881024420261383,-0.3755578398704529,-0.36301326751708984,-0.3504686653614044,-0.3379240930080414,-0.32537949085235596,-0.3128349184989929,-0.3002903461456299,-0.28774574398994446,-0.2752011716365814,-0.262656569480896,-0.25011199712753296,-0.23756740987300873,-0.2250228226184845,-0.21247823536396027,-0.19993364810943604,-0.1873890608549118,-0.17484447360038757,-0.16229988634586334,-0.1497552990913391,-0.13721072673797607,-0.12466613948345184,-0.11212155222892761,-0.09957696497440338,-0.08703237771987915,-0.07448779046535492,-0.061943210661411285,-0.049398623406887054,-0.036854036152362823,-0.02430945262312889,-0.01176486723124981,0.0007797181606292725,0.013324303552508354,0.025868888944387436,0.03841347247362137,0.0509580597281456,0.06350264698266983,0.07604722678661346,0.0885918140411377,0.10113640129566193,0.11368098855018616,0.1262255758047104,0.13877016305923462,0.15131473541259766,0.1638593226671219,0.17640390992164612,0.18894849717617035,0.20149308443069458,0.2140376716852188,0.22658225893974304,0.23912684619426727,0.2516714334487915,0.26421600580215454,0.27676060795783997,0.289305180311203,0.3018497824668884,0.31439435482025146,0.3269389271736145,0.3394835293292999,0.35202810168266296,0.3645727038383484,0.3771172761917114,0.38966187834739685,0.4022064507007599]},"gradients/graph_2net.4.bias":{"values":[1],"bins":[-16.97525405883789,-16.97525405883789],"_type":"histogram"},"_step":0,"parameters/graph_1net.4.weight":{"values":[2,1,0,3,3,8,7,10,8,4,11,13,8,9,10,5,13,10,6,11,5,12,7,11,7,6,17,13,23,15,14,7,11,15,5,12,13,13,13,19,13,6,9,10,10,10,12,13,12,14,6,5,4,0,2,1,4,0,0,0,0,0,0,1],"bins":[-0.06948129087686539,-0.0670541450381279,-0.06462699174880981,-0.06219984591007233,-0.05977270007133484,-0.05734555423259735,-0.054918404668569565,-0.05249125510454178,-0.05006410926580429,-0.0476369634270668,-0.04520981386303902,-0.04278266429901123,-0.04035551846027374,-0.037928372621536255,-0.03550122305750847,-0.03307407349348068,-0.030646927654743195,-0.028219779953360558,-0.02579263225197792,-0.023365484550595284,-0.020938336849212646,-0.01851118914783001,-0.016084041446447372,-0.013656893745064735,-0.011229746043682098,-0.008802598342299461,-0.006375450640916824,-0.003948302939534187,-0.0015211552381515503,0.0009059924632310867,0.0033331401646137238,0.005760287865996361,0.008187443017959595,0.010614590719342232,0.013041738420724869,0.015468886122107506,0.017896033823490143,0.02032318152487278,0.022750329226255417,0.025177476927638054,0.02760462462902069,0.030031772330403328,0.032458920031785965,0.03488606959581375,0.03731321543455124,0.03974036127328873,0.04216751083731651,0.0445946604013443,0.04702180624008179,0.049448952078819275,0.05187610164284706,0.05430325120687485,0.056730397045612335,0.05915754288434982,0.06158469244837761,0.0640118420124054,0.06643898785114288,0.06886613368988037,0.07129327952861786,0.07372043281793594,0.07614757865667343,0.07857472449541092,0.081001877784729,0.08342902362346649,0.08585616946220398],"_type":"histogram"},"parameters/graph_2net.4.weight":{"_type":"histogram","values":[1,0,0,1,0,0,0,1,1,0,3,4,3,3,4,3,3,6,2,8,4,8,3,4,3,4,3,2,1,3,5,4,5,5,11,8,7,8,11,8,6,2,5,6,6,2,6,6,5,6,5,6,4,5,3,2,4,3,3,3,7,7,2,2],"bins":[-0.07808837294578552,-0.07593806833028793,-0.07378776371479034,-0.07163745909929276,-0.06948715448379517,-0.06733684986829758,-0.06518654525279999,-0.0630362406373024,-0.06088593229651451,-0.05873562768101692,-0.05658532306551933,-0.054435018450021744,-0.052284710109233856,-0.05013440549373627,-0.04798410087823868,-0.04583379626274109,-0.0436834916472435,-0.04153318703174591,-0.03938288241624832,-0.03723257780075073,-0.03508227318525314,-0.032931964844465256,-0.030781660228967667,-0.028631355613470078,-0.02648105099797249,-0.0243307463824749,-0.02218044176697731,-0.020030135288834572,-0.017879830673336983,-0.015729526057839394,-0.01357922051101923,-0.011428914964199066,-0.009278610348701477,-0.007128305267542601,-0.004978000186383724,-0.002827695105224848,-0.0006773900240659714,0.001472915057092905,0.0036232201382517815,0.005773525219410658,0.007923830300569534,0.010074134916067123,0.012224440462887287,0.01437474600970745,0.01652505062520504,0.01867535524070263,0.020825661718845367,0.022975966334342957,0.025126270949840546,0.027276575565338135,0.029426880180835724,0.03157718479633331,0.0337274894118309,0.03587779775261879,0.03802810236811638,0.04017840698361397,0.04232871159911156,0.044479016214609146,0.046629320830106735,0.048779625445604324,0.05092993378639221,0.0530802384018898,0.05523054301738739,0.05738084763288498,0.05953115224838257]},"parameters/graph_2net.2.weight":{"bins":[-0.09325973689556122,-0.0902363657951355,-0.08721300214529037,-0.08418963849544525,-0.08116626739501953,-0.07814289629459381,-0.07511953264474869,-0.07209616899490356,-0.06907279789447784,-0.06604942679405212,-0.063026063144207,-0.06000269576907158,-0.05697932839393616,-0.053955961018800735,-0.050932593643665314,-0.04790922626852989,-0.04488585889339447,-0.04186249151825905,-0.03883912414312363,-0.035815756767988205,-0.03279238939285278,-0.02976902201771736,-0.02674565464258194,-0.023722287267446518,-0.020698919892311096,-0.017675552517175674,-0.014652185142040253,-0.011628817766904831,-0.00860545039176941,-0.005582083016633987,-0.0025587156414985657,0.0004646517336368561,0.0034880265593528748,0.0065113939344882965,0.009534761309623718,0.01255812868475914,0.015581496059894562,0.018604863435029984,0.021628230810165405,0.024651598185300827,0.02767496556043625,0.03069833293557167,0.03372170031070709,0.036745067685842514,0.039768435060977936,0.04279180243611336,0.04581516981124878,0.0488385371863842,0.05186190456151962,0.054885271936655045,0.057908639311790466,0.06093200668692589,0.06395537406206131,0.06697873771190643,0.07000210881233215,0.07302547991275787,0.076048843562603,0.07907220721244812,0.08209557831287384,0.08511894941329956,0.08814231306314468,0.09116567671298981,0.09418904781341553,0.09721241891384125,0.10023578256368637],"_type":"histogram","values":[1,1,3,13,5,31,47,97,379,602,1238,1400,1460,1523,1479,1513,1472,1549,1493,1576,1595,1575,1507,1633,1545,1539,1593,1568,1576,1626,1614,1613,1570,1639,1550,1533,1652,1585,1636,1542,1588,1558,1574,1591,1619,1529,1621,1553,1440,1308,995,542,168,171,142,129,78,82,73,52,66,42,31,11]},"critic_loss":72.03981018066406,"gradients/net.0.bias":{"values":[256],"bins":[0,0],"_type":"histogram"},"gradients/net.4.bias":{"values":[5],"bins":[0,0],"_type":"histogram"},"gradients/graph_2net.0.bias":{"bins":[-0.4006512761116028,-0.384990394115448,-0.3693294823169708,-0.35366860032081604,-0.33800768852233887,-0.3223468065261841,-0.3066859245300293,-0.2910250127315521,-0.27536413073539734,-0.25970324873924255,-0.24404233694076538,-0.2283814549446106,-0.21272055804729462,-0.19705966114997864,-0.18139877915382385,-0.16573788225650787,-0.1500769853591919,-0.13441608846187592,-0.11875519901514053,-0.10309430956840515,-0.08743341267108917,-0.0717725157737732,-0.05611162632703781,-0.04045073315501213,-0.02478983998298645,-0.00912894681096077,0.006531946361064911,0.02219283953309059,0.03785373270511627,0.05351462587714195,0.06917551904916763,0.08483640849590302,0.10049736499786377,0.11615826189517975,0.13181915879249573,0.1474800407886505,0.1631409376859665,0.17880183458328247,0.19446271657943726,0.21012361347675323,0.2257845103740692,0.2414454072713852,0.25710630416870117,0.27276718616485596,0.28842806816101074,0.3040889799594879,0.3197498619556427,0.3354107737541199,0.35107165575027466,0.36673253774642944,0.3823934495449066,0.3980543315410614,0.4137152433395386,0.42937612533569336,0.44503700733184814,0.4606979191303253,0.4763588011264801,0.4920196831226349,0.5076805949211121,0.5233414769172668,0.5390023589134216,0.5546632409095764,0.570324182510376,0.5859850645065308,0.6016459465026855],"_type":"histogram","values":[1,0,0,0,0,0,1,1,0,1,2,0,2,0,7,3,3,2,6,7,4,4,12,2,1,127,8,7,7,3,5,5,3,9,1,2,2,5,0,1,2,0,1,0,0,3,3,1,0,0,1,0,0,0,0,0,0,0,0,0,0,0,0,1]},"parameters/net.0.weight":{"_type":"histogram","values":[81742,81616,81232,81267,81355,81604,81584,81288,82059,81531,81541,81637,82012,81538,81225,81668,81621,81981,81966,81325,81644,81607,81542,81499,81589,81744,82016,82245,81657,81297,81468,81871,82144,81503,81803,81590,81579,81930,81470,81515,81401,81390,81567,82543,81564,81322,81869,81208,81479,81373,81983,81330,81683,81803,81896,80836,81458,81209,81701,81682,81636,81402,81750,81322],"bins":[-0.007001055404543877,-0.00678227236494422,-0.0065634893253445625,-0.006344706751406193,-0.006125923711806536,-0.005907140672206879,-0.005688358098268509,-0.005469575058668852,-0.005250792019069195,-0.005032008979469538,-0.004813225939869881,-0.004594443365931511,-0.004375660326331854,-0.004156877286732197,-0.003938094712793827,-0.00371931167319417,-0.003500528633594513,-0.003281745593994856,-0.0030629627872258425,-0.002844179980456829,-0.002625396940857172,-0.002406613901257515,-0.0021878310944885015,-0.001969048287719488,-0.001750265248119831,-0.0015314823249354959,-0.0013126994017511606,-0.0010939164785668254,-0.0008751335553824902,-0.0006563506321981549,-0.0004375677090138197,-0.00021878478582948446,-2.3283064365386963e-09,0.0002187805948778987,0.0004375635180622339,0.0006563464412465692,0.0008751293644309044,0.0010939122876152396,0.0013126952107995749,0.00153147813398391,0.0017502610571682453,0.0019690440967679024,0.0021878269035369158,0.002406609710305929,0.0026253927499055862,0.0028441757895052433,0.0030629585962742567,0.00328174140304327,0.003500524442642927,0.0037193074822425842,0.003938090056180954,0.004156873095780611,0.004375656135380268,0.004594439174979925,0.004813222214579582,0.005032004788517952,0.005250787828117609,0.005469570867717266,0.005688353441655636,0.005907136481255293,0.00612591952085495,0.006344702560454607,0.006563485600054264,0.006782268173992634,0.007001051213592291]},"gradients/graph_1net.0.bias":{"bins":[0,0],"_type":"histogram","values":[256]},"gradients/graph_2net.2.weight":{"bins":[-613.40576171875,-592.2349853515625,-571.064208984375,-549.8933715820312,-528.7225952148438,-507.55181884765625,-486.38104248046875,-465.2102355957031,-444.0394592285156,-422.8686828613281,-401.6978759765625,-380.527099609375,-359.3563232421875,-338.1855163574219,-317.0147399902344,-295.84393310546875,-274.67315673828125,-253.5023651123047,-232.33157348632812,-211.16079711914062,-189.99000549316406,-168.8192138671875,-147.6484375,-126.47764587402344,-105.30685424804688,-84.13606262207031,-62.96527862548828,-41.794490814208984,-20.623703002929688,0.5470848083496094,21.717872619628906,42.8886604309082,64.05950927734375,85.23030090332031,106.40108489990234,127.57186889648438,148.74266052246094,169.9134521484375,191.084228515625,212.25502014160156,233.42581176757812,254.5966033935547,275.76739501953125,296.93817138671875,318.10894775390625,339.2797546386719,360.4505310058594,381.621337890625,402.7921142578125,423.962890625,445.1336975097656,466.3044738769531,487.47528076171875,508.64605712890625,529.8168334960938,550.9876098632812,572.158447265625,593.3292236328125,614.5,635.6707763671875,656.841552734375,678.0123291015625,699.1831665039062,720.3539428710938,741.5247192382812],"_type":"histogram","values":[1,0,3,3,0,7,4,2,2,5,3,10,9,17,18,26,29,37,52,51,80,93,128,164,188,233,297,396,60714,867,402,318,263,218,187,135,108,99,73,60,49,35,29,22,21,15,14,8,7,7,3,10,2,3,2,2,0,1,0,0,3,0,0,1]},"gradients/graph_1net.4.bias":{"_type":"histogram","values":[2],"bins":[0,0]},"intrinsic_reward":0,"parameters/graph_2net.0.bias":{"values":[1,6,6,2,3,4,5,3,3,3,6,5,5,5,5,3,5,8,4,2,5,8,6,5,3,7,6,3,4,5,3,3,3,4,4,2,5,4,3,5,5,2,1,2,4,5,6,1,5,4,6,4,0,2,2,3,4,6,2,3,4,3,4,6],"bins":[-0.39026933908462524,-0.3779047131538391,-0.36554011702537537,-0.35317549109458923,-0.3408108949661255,-0.32844626903533936,-0.3160816729068756,-0.3037170469760895,-0.29135245084762573,-0.2789878249168396,-0.26662319898605347,-0.2542586028575897,-0.2418939769268036,-0.22952936589717865,-0.2171647548675537,-0.20480014383792877,-0.19243553280830383,-0.1800709217786789,-0.16770631074905396,-0.15534169971942902,-0.14297708868980408,-0.13061246275901794,-0.118247851729393,-0.10588324069976807,-0.09351862967014313,-0.08115401864051819,-0.06878940761089325,-0.056424789130687714,-0.044060178101062775,-0.031695567071437836,-0.0193309523165226,-0.00696633942425251,0.005398273468017578,0.017762886360287666,0.030127499252557755,0.04249211400747299,0.05485672503709793,0.06722133606672287,0.0795859545469284,0.09195056557655334,0.10431517660617828,0.11667978763580322,0.12904439866542816,0.1414090096950531,0.15377363562583923,0.16613824665546417,0.1785028576850891,0.19086746871471405,0.203232079744339,0.21559669077396393,0.22796130180358887,0.2403259128332138,0.25269052386283875,0.2650551497936249,0.2774197459220886,0.28978437185287476,0.3021489977836609,0.31451359391212463,0.32687821984291077,0.3392428159713745,0.35160744190216064,0.3639720380306244,0.3763366639614105,0.38870126008987427,0.4010658860206604],"_type":"histogram"},"gradients/net.2.bias":{"bins":[0,0],"_type":"histogram","values":[256]},"gradients/graph_1net.0.weight":{"_type":"histogram","values":[1792],"bins":[0,0]},"parameters/net.0.bias":{"bins":[-0.006888086907565594,-0.006672173738479614,-0.006456260569393635,-0.006240347865968943,-0.006024434696882963,-0.005808521527796984,-0.005592608358711004,-0.005376695189625025,-0.005160782486200333,-0.004944869317114353,-0.004728956148028374,-0.004513042978942394,-0.004297129809856415,-0.004081216640770435,-0.0038653037045150995,-0.0036493907682597637,-0.0034334775991737843,-0.003217564430087805,-0.003001651493832469,-0.0027857383247464895,-0.0025698253884911537,-0.0023539122194051743,-0.002137999050319195,-0.0019220859976485372,-0.0017061729449778795,-0.0014902598923072219,-0.0012743468396365643,-0.0010584336705505848,-0.0008425206178799272,-0.0006266075652092695,-0.000410694454330951,-0.00019478137255646288,2.1132174879312515e-05,0.0002370452566538006,0.0004529583384282887,0.0006688714493066072,0.0008847845019772649,0.0011006975546479225,0.001316610723733902,0.0015325237764045596,0.0017484368290752172,0.0019643499981611967,0.0021802629344165325,0.002396176103502512,0.0026120892725884914,0.0028280022088438272,0.0030439153779298067,0.0032598283141851425,0.003475741483271122,0.0036916546523571014,0.003907567821443081,0.004123480524867773,0.0043393936939537525,0.004555306863039732,0.0047712200321257114,0.004987133201211691,0.005203045904636383,0.0054189590737223625,0.005634872242808342,0.0058507854118943214,0.006066698580980301,0.00628261175006628,0.0064985244534909725,0.006714437622576952,0.0069303507916629314],"_type":"histogram","values":[5,3,4,3,4,6,1,1,3,3,5,2,5,4,2,3,4,3,3,7,5,2,5,3,5,6,6,2,5,2,5,1,7,1,3,1,3,6,3,7,4,3,2,3,7,3,8,5,6,7,5,3,4,3,6,2,3,6,1,6,7,7,3,3]},"parameters/graph_1net.0.weight":{"values":[1,4,8,21,26,30,31,32,27,23,32,24,32,41,32,30,29,30,35,32,27,29,27,32,37,38,31,29,18,24,37,31,29,29,39,27,34,30,33,27,29,23,24,29,30,20,29,29,32,40,23,41,36,32,24,29,36,38,26,30,27,16,16,5],"bins":[-0.4089125394821167,-0.396260142326355,-0.38360777497291565,-0.37095537781715393,-0.3583030104637146,-0.3456506133079529,-0.33299824595451355,-0.32034584879875183,-0.3076934814453125,-0.2950410842895508,-0.28238868713378906,-0.26973631978034973,-0.257083922624588,-0.2444315403699875,-0.23177915811538696,-0.21912677586078644,-0.2064743936061859,-0.1938220113515854,-0.18116962909698486,-0.16851724684238434,-0.1558648645877838,-0.1432124674320221,-0.13056008517742157,-0.11790770292282104,-0.10525532066822052,-0.09260293841362,-0.07995055615901947,-0.06729816645383835,-0.054645784199237823,-0.0419934019446373,-0.029341015964746475,-0.0166886318475008,-0.004036217927932739,0.008616166189312935,0.02126855030655861,0.03392093628644943,0.04657331854104996,0.05922570079565048,0.0718780905008316,0.08453047275543213,0.09718285501003265,0.10983523726463318,0.1224876195192337,0.13514000177383423,0.14779239892959595,0.16044478118419647,0.173097163438797,0.18574954569339752,0.19840192794799805,0.21105431020259857,0.2237066924571991,0.23635907471179962,0.24901145696640015,0.26166385412216187,0.2743162214756012,0.2869686186313629,0.29962098598480225,0.31227338314056396,0.3249257802963257,0.337578147649765,0.35023054480552673,0.36288291215896606,0.3755353093147278,0.3881876766681671,0.40084007382392883],"_type":"histogram"},"parameters/graph_1net.2.weight":{"bins":[-0.08546289056539536,-0.08263885229825974,-0.07981481403112411,-0.0769907757639885,-0.07416673749685287,-0.07134269922971725,-0.06851866096258163,-0.06569462269544601,-0.06287059187889099,-0.06004654988646507,-0.05722251161932945,-0.05439847335219383,-0.05157443881034851,-0.04875040054321289,-0.04592636227607727,-0.04310232400894165,-0.04027828574180603,-0.03745424747467041,-0.03463020920753479,-0.03180617094039917,-0.0289821345359087,-0.02615809626877308,-0.023334059864282608,-0.020510021597146988,-0.017685983330011368,-0.014861945062875748,-0.012037907727062702,-0.009213870391249657,-0.0063898321241140366,-0.0035657943226397038,-0.0007417565211653709,0.002082281280308962,0.004906319081783295,0.0077303568832576275,0.01055439468473196,0.013378432020545006,0.016202470287680626,0.019026508554816246,0.021850544959306717,0.024674583226442337,0.027498621493577957,0.030322659760713577,0.0331466980278492,0.03597073629498482,0.03879477083683014,0.04161880910396576,0.04444284737110138,0.047266885638237,0.05009092390537262,0.05291496217250824,0.05573900043964386,0.05856303870677948,0.0613870769739151,0.06421111524105072,0.06703515350818634,0.06985919177532196,0.07268323004245758,0.0755072608590126,0.07833129912614822,0.08115533739328384,0.08397937566041946,0.08680341392755508,0.0896274521946907,0.09245149046182632,0.09527552872896194],"_type":"histogram","values":[8,15,32,84,171,298,586,738,1168,1326,1330,1336,1453,1449,1444,1435,1510,1511,1501,1474,1445,1471,1492,1463,1453,1441,1556,1459,1406,1522,1559,1520,1465,1570,1428,1469,1488,1429,1439,1455,1513,1551,1538,1467,1408,1452,1451,1399,1377,1187,940,699,434,214,185,123,76,57,23,19,12,8,3,1]},"gradients/net.4.weight":{"_type":"histogram","values":[1280],"bins":[0,0]},"parameters/net.4.weight":{"bins":[-0.06240301579236984,-0.060451433062553406,-0.05849984660744667,-0.056548260152339935,-0.0545966774225235,-0.05264509469270706,-0.05069350823760033,-0.04874192178249359,-0.046790339052677155,-0.04483875632286072,-0.04288716986775398,-0.04093558341264725,-0.03898400068283081,-0.037032417953014374,-0.03508083149790764,-0.0331292450428009,-0.031177662312984467,-0.02922607772052288,-0.027274493128061295,-0.02532290853559971,-0.023371323943138123,-0.021419739350676537,-0.01946815475821495,-0.017516570165753365,-0.015564985573291779,-0.013613400980830193,-0.011661816388368607,-0.00971023179590702,-0.007758647203445435,-0.005807062610983849,-0.0038554780185222626,-0.0019038934260606766,4.7691166400909424e-05,0.0019992757588624954,0.003950860351324081,0.005902444943785667,0.007854029536247253,0.00980561412870884,0.011757198721170425,0.013708783313632011,0.015660367906093597,0.017611952498555183,0.01956353709101677,0.021515121683478355,0.02346670627593994,0.025418290868401527,0.027369875460863113,0.0293214600533247,0.031273044645786285,0.03322462737560272,0.03517621383070946,0.03712780028581619,0.03907938301563263,0.041030965745449066,0.0429825522005558,0.04493413865566254,0.04688572138547897,0.04883730411529541,0.050788890570402145,0.05274047702550888,0.05469205975532532,0.056643642485141754,0.05859522894024849,0.060546815395355225,0.06249839812517166],"_type":"histogram","values":[21,15,17,18,30,14,17,24,18,27,19,17,21,23,16,21,20,26,16,19,22,16,25,20,27,19,34,18,11,11,21,20,21,24,21,22,23,18,18,17,20,19,21,17,28,15,24,24,18,22,28,16,23,17,18,21,17,15,16,18,23,9,19,25]},"gradients/net.2.weight":{"bins":[0,0],"_type":"histogram","values":[65536]},"gradients/graph_2net.4.weight":{"bins":[-6543.34912109375,-6441.109375,-6338.86962890625,-6236.62939453125,-6134.3896484375,-6032.14990234375,-5929.91015625,-5827.67041015625,-5725.4306640625,-5623.1904296875,-5520.95068359375,-5418.7109375,-5316.47119140625,-5214.2314453125,-5111.99169921875,-5009.75146484375,-4907.51171875,-4805.27197265625,-4703.0322265625,-4600.79248046875,-4498.552734375,-4396.3125,-4294.07275390625,-4191.8330078125,-4089.59326171875,-3987.353271484375,-3885.113525390625,-3782.873779296875,-3680.6337890625,-3578.39404296875,-3476.154296875,-3373.914306640625,-3271.674560546875,-3169.434814453125,-3067.19482421875,-2964.955078125,-2862.71533203125,-2760.475341796875,-2658.235595703125,-2555.995849609375,-2453.755859375,-2351.51611328125,-2249.2763671875,-2147.036376953125,-2044.796630859375,-1942.5567626953125,-1840.31689453125,-1738.0771484375,-1635.8372802734375,-1533.597412109375,-1431.357666015625,-1329.1177978515625,-1226.8779296875,-1124.63818359375,-1022.3983154296875,-920.158447265625,-817.9186401367188,-715.6788330078125,-613.43896484375,-511.19915771484375,-408.9593200683594,-306.719482421875,-204.4796600341797,-102.23983001708984,0],"_type":"histogram","values":[1,1,0,0,0,0,1,0,0,0,0,0,1,0,0,0,0,1,0,1,1,1,1,0,0,0,1,0,1,0,0,0,0,1,1,3,1,1,1,1,1,1,3,1,2,2,1,0,0,1,1,0,2,0,0,0,1,1,1,1,2,1,0,214]},"parameters/net.2.weight":{"bins":[-0.06249724328517914,-0.06054419279098511,-0.05859114229679108,-0.056638091802597046,-0.054685041308403015,-0.052731990814208984,-0.050778940320014954,-0.04882588982582092,-0.04687283933162689,-0.04491978883743286,-0.04296673834323883,-0.0410136878490448,-0.03906063735485077,-0.03710758686065674,-0.03515453636646271,-0.03320148587226868,-0.031248437240719795,-0.029295386746525764,-0.027342336252331734,-0.025389285758137703,-0.023436235263943672,-0.02148318476974964,-0.01953013427555561,-0.01757708378136158,-0.015624034218490124,-0.013670983724296093,-0.011717933230102062,-0.009764882735908031,-0.007811832707375288,-0.005858782213181257,-0.00390573195181787,-0.0019526815740391612,3.688037395477295e-07,0.0019534192979335785,0.003906469792127609,0.005859519820660353,0.00781257078051567,0.009765620343387127,0.011718670837581158,0.013671721331775188,0.01562477182596922,0.017577821388840675,0.019530871883034706,0.021483922377228737,0.023436972871422768,0.0253900233656168,0.02734307385981083,0.02929612435400486,0.03124917484819889,0.03320222347974777,0.0351552739739418,0.037108324468135834,0.039061374962329865,0.041014425456523895,0.042967475950717926,0.04492052644491196,0.04687357693910599,0.04882662743330002,0.05077967792749405,0.05273272842168808,0.05468577891588211,0.05663882941007614,0.05859187990427017,0.0605449303984642,0.062497980892658234],"_type":"histogram","values":[1090,1043,1022,1094,1035,1029,1078,1051,1043,1077,1038,1013,1040,1017,982,1085,1030,960,978,1067,1063,1043,1019,1015,1006,1065,1020,983,1067,1013,996,1037,991,1008,1002,1048,1075,978,1003,1016,980,1025,1013,1051,979,1106,974,995,994,1027,974,1074,987,1064,1010,1009,1044,1029,1008,996,1034,1002,950,991]},"parameters/graph_2net.2.bias":{"bins":[-0.06922947615385056,-0.0667877271771431,-0.06434597074985504,-0.06190422177314758,-0.059462472796440125,-0.057020723819732666,-0.05457897111773491,-0.05213721841573715,-0.049695469439029694,-0.047253720462322235,-0.04481196776032448,-0.04237021505832672,-0.03992846608161926,-0.037486717104911804,-0.03504496440291405,-0.03260321170091629,-0.030161462724208832,-0.027719711884856224,-0.025277961045503616,-0.02283621020615101,-0.0203944593667984,-0.017952708527445793,-0.015510957688093185,-0.013069206848740578,-0.01062745600938797,-0.008185705170035362,-0.0057439543306827545,-0.003302203491330147,-0.0008604526519775391,0.0015812981873750687,0.004023049026727676,0.006464799866080284,0.008906550705432892,0.0113483015447855,0.013790052384138107,0.016231803223490715,0.018673554062843323,0.02111530490219593,0.023557055741548538,0.025998806580901146,0.028440557420253754,0.03088230825960636,0.03332405909895897,0.035765811800956726,0.038207560777664185,0.04064930975437164,0.0430910624563694,0.04553281515836716,0.047974564135074615,0.050416313111782074,0.05285806581377983,0.05529981851577759,0.057741567492485046,0.060183316469192505,0.06262506544589996,0.06506682187318802,0.06750857084989548,0.06995031982660294,0.07239207625389099,0.07483382523059845,0.07727557420730591,0.07971732318401337,0.08215907216072083,0.08460082858800888,0.08704257756471634],"_type":"histogram","values":[4,2,3,1,7,6,3,2,7,3,4,9,5,4,7,2,7,6,4,3,6,4,3,3,6,5,5,1,5,2,5,3,5,7,5,9,5,5,3,8,1,3,6,8,2,8,4,8,6,8,4,4,2,1,3,0,0,0,1,1,1,0,0,1]},"gradients/net.0.weight":{"_type":"histogram","values":[5.222912e+06],"bins":[0,0]},"gradients/graph_1net.2.bias":{"values":[256],"bins":[0,0],"_type":"histogram"},"parameters/graph_1net.0.bias":{"_type":"histogram","values":[1,1,7,3,4,0,5,4,4,6,4,8,4,6,4,2,1,1,7,6,6,6,5,4,4,2,4,3,4,2,4,4,3,4,4,3,6,6,2,2,1,4,6,2,6,3,2,6,7,7,4,1,4,4,3,5,5,6,5,3,5,6,2,3],"bins":[-0.3965180814266205,-0.3845832943916321,-0.3726484775543213,-0.3607136905193329,-0.3487789034843445,-0.3368440866470337,-0.3249092996120453,-0.3129744827747345,-0.3010396957397461,-0.2891049087047577,-0.2771700918674469,-0.2652353048324585,-0.2533004879951477,-0.2413657009601593,-0.2294309139251709,-0.2174961119890213,-0.2055613100528717,-0.1936265081167221,-0.1816917061805725,-0.1697569191455841,-0.1578221172094345,-0.1458873152732849,-0.1339525282382965,-0.12201772630214691,-0.11008292436599731,-0.09814812242984772,-0.08621332794427872,-0.07427853345870972,-0.06234373152256012,-0.05040893331170082,-0.03847413510084152,-0.026539336889982224,-0.014604568481445312,-0.002669770270586014,0.009265027940273285,0.021199826151132584,0.03313462436199188,0.04506942257285118,0.05700422078371048,0.06893901526927948,0.08087381720542908,0.09280861914157867,0.10474341362714767,0.11667820811271667,0.12861301004886627,0.14054781198501587,0.15248259902000427,0.16441740095615387,0.17635220289230347,0.18828700482845306,0.20022180676460266,0.21215659379959106,0.22409139573574066,0.23602619767189026,0.24796098470687866,0.25989580154418945,0.27183058857917786,0.28376537561416626,0.29570019245147705,0.30763497948646545,0.31956976652145386,0.33150458335876465,0.34343937039375305,0.35537418723106384,0.36730897426605225]},"parameters/graph_1net.4.bias":{"_type":"histogram","values":[1,0,0,0,0,0,0,0,0,0,0,0,0,0,0,0,0,0,0,0,0,0,0,0,0,0,0,0,0,0,0,0,0,0,0,0,0,0,0,0,0,0,0,0,0,0,0,0,0,0,0,0,0,0,0,0,0,0,0,0,0,0,0,1],"bins":[0.04743833839893341,0.04770451411604881,0.047970689833164215,0.048236869275569916,0.04850304499268532,0.04876922070980072,0.04903539642691612,0.04930157586932182,0.049567751586437225,0.04983392730355263,0.05010010302066803,0.05036627873778343,0.05063245818018913,0.050898633897304535,0.05116480961441994,0.05143098533153534,0.05169716477394104,0.05196334049105644,0.052229516208171844,0.05249569192528725,0.05276186764240265,0.05302804708480835,0.05329422280192375,0.053560398519039154,0.053826574236154556,0.05409274995326996,0.05435892939567566,0.05462510511279106,0.054891280829906464,0.055157456547021866,0.055423635989427567,0.05568981170654297,0.05595598742365837,0.05622216314077377,0.056488338857889175,0.056754518300294876,0.05702069401741028,0.05728686973452568,0.05755304545164108,0.05781922489404678,0.058085400611162186,0.05835157632827759,0.05861775204539299,0.05888392776250839,0.05915010720491409,0.059416282922029495,0.0596824586391449,0.0599486343562603,0.0602148100733757,0.0604809895157814,0.060747165232896805,0.06101334095001221,0.06127951666712761,0.06154569610953331,0.06181187182664871,0.062078047543764114,0.06234422326087952,0.06261040270328522,0.06287657469511032,0.06314275413751602,0.06340893357992172,0.06367510557174683,0.06394128501415253,0.06420745700597763,0.06447363644838333]},"gradients/graph_2net.2.bias":{"values":[1,0,1,2,0,0,0,0,0,0,0,1,1,3,0,1,2,0,1,0,2,0,0,0,1,1,2,1,214,0,1,1,1,1,1,1,0,0,0,3,0,1,2,0,0,0,3,1,0,0,0,2,0,0,2,1,0,0,0,0,0,0,0,1],"bins":[-1.0000948905944824,-0.9655780792236328,-0.931061327457428,-0.8965445160865784,-0.8620277643203735,-0.8275109529495239,-0.7929941415786743,-0.7584773898124695,-0.7239605784416199,-0.6894437670707703,-0.6549270153045654,-0.6204102039337158,-0.5858933925628662,-0.5513766407966614,-0.5168598294258118,-0.48234304785728455,-0.4478262662887573,-0.4133094847202301,-0.3787927031517029,-0.34427589178085327,-0.30975911021232605,-0.27524232864379883,-0.2407255321741104,-0.206208735704422,-0.17169195413589478,-0.13717517256736755,-0.10265837609767914,-0.06814158707857132,-0.0336247980594635,0.0008919909596443176,0.035408779978752136,0.06992556899785995,0.10444247722625732,0.13895925879478455,0.17347605526447296,0.20799285173416138,0.2425096333026886,0.2770264148712158,0.31154322624206543,0.34606000781059265,0.3805767893791199,0.4150935709476471,0.4496103525161743,0.4841271638870239,0.5186439752578735,0.5531607270240784,0.587677538394928,0.6221942901611328,0.6567111015319824,0.691227912902832,0.7257446646690369,0.7602614760398865,0.7947782278060913,0.8292950391769409,0.8638118505477905,0.8983286023139954,0.932845413684845,0.9673622250556946,1.0018789768218994,1.036395788192749,1.0709125995635986,1.1054294109344482,1.1399461030960083,1.174462914466858,1.2089797258377075],"_type":"histogram"},"parameters/net.2.bias":{"bins":[-0.06206822395324707,-0.060128629207611084,-0.0581890344619751,-0.05624943971633911,-0.054309844970703125,-0.05237025022506714,-0.05043065920472145,-0.048491064459085464,-0.04655146971344948,-0.04461187496781349,-0.042672280222177505,-0.04073268547654152,-0.03879309073090553,-0.036853495985269547,-0.03491390123963356,-0.032974306493997574,-0.031034713611006737,-0.02909511886537075,-0.027155524119734764,-0.025215931236743927,-0.02327633649110794,-0.021336741745471954,-0.019397146999835968,-0.01745755225419998,-0.01551795843988657,-0.013578363694250584,-0.011638769879937172,-0.009699175134301186,-0.007759580854326487,-0.005819986574351788,-0.003880392061546445,-0.001940797665156424,-1.2032687664031982e-06,0.0019383911276236176,0.0038779855240136385,0.005817580036818981,0.00775717431679368,0.00969676859676838,0.011636363342404366,0.013575957156717777,0.015515551902353764,0.017455145716667175,0.01939474046230316,0.021334335207939148,0.023273929953575134,0.02521352469921112,0.027153117582201958,0.029092712327837944,0.03103230707347393,0.03297189995646477,0.034911494702100754,0.03685108944773674,0.038790684193372726,0.04073027893900871,0.0426698736846447,0.044609468430280685,0.04654906317591667,0.04848865792155266,0.050428252667188644,0.05236784368753433,0.05430743843317032,0.056247033178806305,0.05818662792444229,0.06012622267007828,0.062065817415714264],"_type":"histogram","values":[4,4,2,4,7,3,4,2,6,1,3,4,2,5,5,8,7,5,4,7,4,8,3,2,1,2,4,6,3,5,0,1,3,2,3,2,4,5,5,5,3,6,4,1,2,3,5,3,3,3,6,4,6,3,10,4,4,2,3,4,4,8,4,6]},"_runtime":55.353786818,"episode":0,"gradients/graph_1net.4.weight":{"_type":"histogram","values":[512],"bins":[0,0]}}